//Numpy array shape [32, 5]
//Min -0.706497371197
//Max 0.806359291077
//Number of zeros 0

#ifndef W11_H_
#define W11_H_

#ifndef __SYNTHESIS__
output_weight_t w11[160];
#else
output_weight_t w11[160] = {-0.159812, -0.428148, -0.028513, 0.343080, 0.362710, -0.125642, 0.013351, 0.324661, -0.605238, 0.267471, 0.297569, -0.324885, 0.363952, 0.076863, -0.443259, 0.117914, -0.064145, -0.411806, -0.218384, 0.280937, -0.209648, -0.005847, -0.025784, 0.476057, -0.092477, -0.550190, -0.009976, -0.078656, 0.590229, -0.367395, 0.214465, 0.100829, 0.244697, 0.049062, -0.667310, 0.184740, -0.075365, 0.193258, 0.407802, -0.661379, -0.212888, -0.187165, 0.603101, 0.009683, -0.244812, 0.350757, 0.006269, 0.161307, -0.394839, -0.077282, 0.234585, 0.277147, 0.078679, 0.139836, -0.396581, 0.395940, 0.001782, -0.130481, 0.161486, -0.186318, 0.210264, -0.115721, 0.073623, -0.100983, 0.110917, -0.000034, -0.000147, 0.000019, -0.000054, 0.000193, -0.097746, 0.171336, 0.159918, 0.296977, -0.119541, -0.017841, 0.362718, -0.165018, 0.215966, 0.248802, 0.061533, 0.000508, -0.192173, 0.124350, 0.166174, -0.227838, -0.006755, 0.193279, 0.106475, -0.585877, -0.066378, 0.256661, 0.408894, -0.706497, -0.586706, -0.338087, 0.291916, -0.037603, -0.085560, 0.161141, -0.410886, -0.341508, -0.185738, 0.461907, 0.204910, 0.193279, 0.191292, -0.311130, -0.131489, 0.346309, -0.014074, -0.213022, -0.258195, 0.806359, -0.405560, 0.000001, -0.000011, -0.000002, -0.000006, -0.000010, 0.000306, -0.408006, 0.046859, 0.133686, 0.068574, -0.234047, -0.059635, 0.733185, 0.004694, -0.345283, -0.462820, -0.645757, 0.197875, 0.519896, -0.334315, 0.032601, 0.198982, 0.047311, 0.221352, -0.412563, 0.000002, 0.000024, -0.000020, 0.000029, 0.000006, 0.124453, -0.003261, 0.204706, 0.345611, -0.372235, -0.287829, -0.217865, 0.180098, -0.323274, 0.327839, 0.359733, 0.356796, -0.007267, -0.285043, -0.004566};
#endif

#endif
