//Numpy array shape [32, 32]
//Min -0.831670641899
//Max 0.593235015869
//Number of zeros 0

#ifndef W8_H_
#define W8_H_

#ifndef __SYNTHESIS__
fc3_weight_t w8[1024];
#else
fc3_weight_t w8[1024] = {-0.023015, -0.584046, 0.330385, 0.059362, 0.000040, -0.264339, 0.173248, -0.240242, -0.277479, 0.174972, 0.212978, 0.294144, 0.306977, 0.000017, -0.000060, -0.197659, 0.000049, -0.291468, -0.076147, -0.051932, -0.010179, 0.077279, -0.391662, -0.000009, -0.031801, -0.526819, -0.519613, 0.094153, 0.000033, 0.050400, 0.057344, 0.000328, 0.364155, -0.304922, 0.233592, 0.196645, 0.050259, 0.008788, -0.218686, -0.042116, -0.163386, -0.099434, -0.250000, -0.009139, 0.297291, 0.000004, -0.259274, 0.158041, 0.057825, 0.118783, -0.454624, -0.048573, -0.161535, -0.008813, -0.069881, 0.000010, 0.010630, -0.264552, -0.537029, -0.353095, 0.000007, -0.032871, 0.033896, -0.112573, 0.022761, 0.016210, -0.077747, -0.164638, -0.092575, 0.078358, -0.057137, 0.203432, 0.146540, -0.231491, -0.153961, 0.171966, -0.162909, -0.000008, 0.253897, 0.019953, -0.069168, 0.037500, 0.327669, 0.378107, 0.099697, 0.297558, 0.047566, -0.000025, -0.097506, -0.026329, 0.084351, 0.196562, 0.000012, 0.076219, 0.212053, 0.075554, -0.258439, -0.000038, -0.103225, -0.054458, 0.000112, 0.000048, -0.000298, -0.000153, 0.103450, -0.000216, 0.000084, -0.042499, -0.000086, -0.000018, 0.086705, -0.000143, 0.000073, -0.000273, 0.000252, 0.000127, 0.000282, -0.242519, 0.000129, 0.000012, 0.000021, 0.170430, -0.000161, -0.000042, -0.000002, -0.000214, 0.000084, 0.000267, 0.003353, -0.166512, 0.241075, 0.004499, 0.293320, 0.057317, 0.286470, -0.000212, 0.263674, -0.040368, 0.185071, 0.247965, -0.206301, 0.000014, -0.007787, 0.291941, 0.000006, -0.057415, -0.092013, -0.236882, 0.045754, 0.092052, 0.055227, 0.000001, 0.272956, -0.085577, -0.000280, 0.062307, -0.000013, 0.065112, -0.002733, -0.135900, -0.213937, 0.129680, -0.006711, -0.249411, -0.003577, -0.169364, 0.439274, 0.031807, -0.249919, 0.407168, 0.171843, -0.007117, 0.187358, -0.000001, -0.001701, 0.061201, 0.012369, 0.026436, -0.014933, 0.205603, -0.183153, -0.086976, -0.363543, 0.000004, -0.101220, 0.109506, -0.071110, 0.438898, 0.000009, 0.297670, -0.298241, 0.499531, 0.115559, 0.130590, -0.024572, -0.223948, 0.000383, -0.000406, 0.030831, -0.052465, 0.196021, 0.128204, -0.369560, -0.246438, 0.012394, 0.000009, -0.083213, -0.150731, -0.059845, 0.403004, 0.359691, 0.028871, 0.099603, -0.410948, 0.125839, -0.000004, 0.337259, 0.384441, 0.355704, -0.007752, -0.000026, -0.051639, 0.257942, -0.000630, 0.050583, -0.078176, -0.315561, 0.163037, 0.001374, -0.016472, -0.090638, 0.199530, 0.117000, -0.114983, -0.110964, 0.000993, -0.178501, -0.000035, 0.017108, 0.022423, 0.091700, 0.250754, 0.089586, 0.188494, 0.245554, 0.396833, 0.146912, 0.000009, -0.081856, -0.206057, -0.227900, -0.183205, 0.000008, -0.264177, 0.098705, 0.280444, -0.290473, 0.295354, 0.112800, 0.122986, 0.066432, -0.653964, 0.222709, -0.191094, 0.070389, -0.030844, 0.035767, 0.117842, 0.146033, -0.000008, -0.318908, 0.060673, 0.047614, -0.387836, 0.313145, 0.245176, -0.480261, 0.201729, -0.259256, -0.000015, -0.307343, -0.015493, -0.330679, 0.134852, 0.000010, 0.213475, 0.159124, 0.095264, -0.081786, 0.044176, 0.370509, 0.296928, 0.028127, -0.220818, 0.129721, 0.003154, -0.226144, 0.099195, 0.513576, 0.509328, 0.335215, -0.000031, -0.090592, -0.128255, -0.000181, -0.107378, -0.207635, -0.411212, -0.379958, 0.299251, 0.097905, 0.000001, -0.072759, 0.035940, -0.037884, -0.000054, 0.000005, 0.267272, -0.206934, 0.443163, 0.229376, 0.351941, 0.132069, -0.105911, 0.083628, -0.329101, 0.265819, -0.090236, -0.160568, 0.162200, 0.168669, -0.255813, 0.300663, 0.000006, -0.000126, -0.175666, 0.000078, -0.002908, 0.007643, 0.246638, -0.318157, -0.000010, -0.457935, -0.000016, -0.214342, -0.241543, -0.165238, 0.129489, 0.000045, 0.408056, 0.301193, -0.101361, 0.319031, -0.099652, 0.011969, 0.179300, 0.018967, 0.040191, -0.025311, -0.219106, 0.148931, 0.060470, 0.139352, 0.072202, 0.204748, -0.000009, -0.288748, -0.143193, 0.022229, -0.262981, 0.118380, -0.034937, 0.099254, 0.341065, 0.103035, -0.000008, 0.292480, 0.019016, -0.000323, -0.008093, 0.000009, -0.051675, -0.193421, 0.078297, 0.038141, 0.024298, -0.127171, 0.063061, 0.372624, -0.554065, 0.080619, -0.541441, -0.100698, 0.102333, 0.128666, 0.296194, -0.070668, -0.000016, -0.337832, -0.125382, -0.035607, -0.584279, -0.241250, 0.109895, -0.397918, -0.256944, -0.247471, -0.000003, 0.102176, -0.131090, -0.183257, -0.133565, 0.000000, 0.159119, 0.228128, 0.172362, -0.382551, -0.224062, 0.120899, -0.204909, 0.000011, -0.250716, 0.175370, 0.270362, 0.520329, 0.235781, 0.412502, 0.138626, 0.226980, -0.000012, 0.044171, 0.030459, -0.214349, 0.454924, 0.523174, -0.220633, -0.455090, -0.180375, -0.085088, 0.000011, -0.155078, 0.272969, -0.033876, 0.000123, -0.000005, 0.038789, 0.075528, 0.059667, -0.278649, -0.010048, 0.066733, 0.307417, -0.269743, 0.284091, 0.019655, -0.106088, -0.039300, 0.087335, 0.052350, 0.176595, 0.044342, -0.000005, 0.210734, -0.061180, 0.000319, 0.064298, -0.139026, -0.085149, 0.285346, 0.179523, -0.113535, 0.000008, -0.130947, 0.043687, -0.100563, 0.093427, -0.000002, 0.098015, -0.100493, 0.235035, 0.077510, -0.434755, 0.024223, 0.149680, -0.000071, -0.229429, 0.228024, -0.191412, -0.218546, -0.000285, 0.153154, -0.133928, -0.115808, 0.000011, -0.078521, 0.111728, 0.000736, 0.088117, 0.165789, 0.225633, -0.149729, 0.296279, -0.268133, -0.000001, -0.254832, -0.002465, -0.354127, -0.038826, 0.000004, -0.000301, 0.118734, 0.261495, 0.471852, 0.069308, -0.115960, -0.140970, 0.001628, 0.074520, -0.259096, 0.413870, 0.273256, 0.001299, -0.141775, 0.016205, 0.279734, -0.000022, -0.201907, -0.237476, -0.000780, 0.269504, -0.025352, 0.001062, 0.209601, 0.022848, 0.226593, 0.000001, -0.008336, 0.011953, 0.280802, -0.198295, 0.000011, -0.000278, 0.459088, -0.338148, 0.381271, -0.038027, 0.103282, -0.092172, 0.070507, 0.083771, 0.010996, 0.033292, 0.297498, 0.139831, -0.223670, -0.202878, -0.002776, 0.000005, 0.129659, 0.034453, 0.000105, 0.281632, -0.113778, 0.041112, 0.520600, 0.101194, 0.209686, -0.000004, 0.286938, 0.338893, 0.300482, 0.044393, -0.000009, 0.232212, 0.267457, -0.087312, 0.083452, -0.262043, 0.148607, -0.169852, -0.000040, 0.287755, -0.100071, 0.060307, 0.127130, 0.136314, 0.231968, 0.188887, 0.013926, -0.000006, 0.064484, 0.069854, -0.004205, 0.226799, 0.017942, 0.230360, 0.154671, -0.033888, -0.026693, -0.000009, 0.040858, 0.198904, 0.010841, 0.073795, 0.000015, 0.000060, -0.264505, -0.190334, -0.420395, -0.000087, -0.055414, 0.000088, -0.195080, -0.003550, 0.008366, 0.132730, -0.166495, 0.165434, 0.000081, 0.006227, 0.293078, -0.000013, -0.000656, 0.138448, 0.000406, 0.083973, 0.245827, -0.048709, -0.046867, 0.043296, -0.002454, -0.000007, -0.024924, -0.006148, -0.002240, -0.024142, 0.000016, -0.154443, -0.137654, 0.182299, 0.134274, 0.126059, 0.276007, 0.026900, 0.038751, -0.046175, 0.208401, 0.246537, 0.253873, 0.278698, 0.207491, 0.104758, 0.294612, 0.000005, 0.054072, -0.117277, -0.049560, -0.229055, -0.169398, 0.162127, 0.026946, 0.253410, -0.040815, 0.000016, -0.000836, 0.256597, 0.125352, 0.038982, 0.000013, 0.235457, 0.201390, 0.050071, 0.273554, -0.324521, 0.145958, 0.267693, 0.003944, 0.068396, -0.108775, 0.075978, -0.409503, -0.189788, -0.203378, 0.009783, 0.155517, -0.000021, 0.187163, 0.227868, 0.294368, -0.006166, -0.384747, 0.082557, 0.418582, 0.458311, 0.400036, 0.000015, 0.245914, -0.188903, 0.325587, -0.119336, -0.000001, -0.281588, -0.052311, -0.031872, 0.079158, 0.002313, -0.050483, -0.030430, -0.000035, 0.221972, -0.007579, 0.218361, 0.346610, -0.247800, 0.199189, -0.001414, -0.067732, -0.000006, 0.028004, 0.192676, -0.123854, 0.410026, 0.144657, 0.320099, 0.049084, -0.069030, -0.060306, -0.000002, -0.000049, 0.362686, 0.139002, 0.057352, -0.000000, 0.000063, -0.279197, 0.008165, 0.244601, 0.325473, -0.286864, -0.139577, -0.008168, 0.317021, -0.008983, 0.055838, 0.246013, 0.273261, -0.038417, -0.224140, -0.084115, 0.000004, 0.255989, 0.056462, 0.000095, 0.176286, 0.191610, 0.398073, 0.160377, 0.010686, -0.005852, 0.000017, 0.149375, 0.004789, 0.165437, -0.142858, -0.000004, -0.004812, 0.257277, 0.137245, 0.139679, 0.019641, 0.027178, 0.123083, -0.116707, 0.016923, -0.229359, 0.075735, -0.345545, -0.044452, 0.058943, 0.298982, -0.000095, 0.000005, 0.249886, -0.073984, 0.131942, 0.237732, -0.173880, 0.371190, 0.427938, 0.593235, 0.223995, 0.000011, -0.016341, -0.117331, -0.022261, -0.265712, -0.000010, -0.395571, -0.063231, 0.110275, -0.305632, 0.318110, -0.408117, 0.213488, -0.000108, 0.125937, -0.218287, 0.003782, 0.016115, -0.018480, 0.002279, -0.338957, -0.206335, -0.000017, -0.114633, 0.017498, -0.000016, -0.139970, 0.142194, 0.289206, -0.088760, 0.000524, -0.088684, -0.000006, -0.010268, 0.146310, -0.018841, 0.124586, -0.000008, -0.000065, 0.254668, 0.051200, 0.255927, 0.215596, -0.263208, 0.118641, 0.125669, -0.000349, -0.104129, -0.467349, -0.259189, -0.255685, 0.238028, 0.079781, 0.212589, 0.000017, -0.272932, 0.337005, 0.000197, -0.218247, 0.161249, 0.045022, -0.132759, 0.063256, -0.149940, -0.000020, -0.094919, -0.209515, 0.114687, 0.000017, -0.000007, 0.015643, -0.079561, -0.271400, -0.188004, 0.075051, -0.011060, 0.091415, 0.109008, -0.671926, 0.146461, -0.631575, 0.022812, -0.068100, 0.398400, -0.032046, 0.185423, -0.000017, -0.352788, 0.067804, 0.010036, -0.443680, -0.198803, 0.120849, -0.100278, 0.096996, -0.831671, 0.000012, -0.028536, 0.120805, -0.494228, 0.274465, 0.000028, 0.073371, 0.238284, -0.001789, 0.143134, 0.344199, 0.000436, -0.274665, 0.023136, 0.467530, 0.041814, 0.014254, -0.123555, 0.011157, -0.197765, -0.013995, -0.000045, 0.000011, -0.000189, -0.173896, 0.000083, -0.134836, -0.064447, 0.084990, 0.100101, -0.093608, 0.056788, 0.000028, 0.231682, 0.000837, 0.354363, -0.034049, -0.000004, -0.092297, 0.108501, -0.150997, 0.052370, 0.300539, -0.020595, -0.123341, 0.060467, -0.569687, 0.327808, -0.243957, -0.135857, -0.081096, 0.048718, -0.310245, 0.252429, 0.000001, -0.194366, 0.000669, 0.095756, -0.068444, 0.306490, -0.092929, -0.394715, 0.353037, -0.681064, 0.000012, 0.001066, 0.000307, -0.248792, 0.327606, 0.000002, 0.078693, 0.269952, 0.166481, 0.034242, -0.148034, -0.229844, -0.083854, 0.033138, -0.126448, -0.093954, -0.404725, 0.021711, 0.056678, 0.000274, -0.023098, -0.092979, -0.000015, -0.028012, 0.212203, 0.143945, -0.562965, 0.184453, -0.141589, -0.304832, -0.219477, -0.549910, -0.000005, 0.282196, -0.211052, -0.432914, 0.334300, -0.000002, 0.141620, -0.058589, 0.283086, -0.322420, 0.067460, -0.095309, 0.000375, -0.147767, -0.056006, -0.037856, 0.005808, 0.014849, 0.388822, -0.004814, -0.260471, 0.090062, 0.000000, -0.002809, -0.002940, 0.000403, 0.073409, 0.141161, 0.066952, -0.069896, 0.101482, 0.068897, -0.000017, -0.000544, 0.176680, 0.086015, -0.000250, 0.000016, -0.000603, -0.228212, 0.414518};
#endif

#endif
