//Numpy array shape [32, 32]
//Min -1.002402544022
//Max 0.608225703239
//Number of zeros 0

#ifndef W8_H_
#define W8_H_

#ifndef __SYNTHESIS__
fc3_weight_t w8[1024];
#else
fc3_weight_t w8[1024] = {-0.152228, -0.018433, 0.009735, 0.178846, 0.039593, -0.420037, 0.285584, -0.132087, -0.255106, 0.306016, -0.160943, 0.022760, 0.369992, -0.324394, 0.078330, 0.047946, -0.033553, -0.079462, 0.373738, -0.067873, 0.581316, -0.270109, -0.042958, 0.140359, -0.010081, 0.068445, 0.430062, 0.306084, -0.401920, -0.111411, 0.295025, 0.291452, 0.325399, -0.038667, -0.078243, 0.314548, 0.318001, -0.159463, 0.122530, 0.285067, 0.271917, -0.671454, -0.120279, -0.112467, 0.015920, 0.079738, 0.053186, 0.009246, 0.234503, 0.202195, 0.158989, 0.166669, -0.003192, -0.348076, 0.002129, -0.084691, -0.243498, -0.341921, -0.427763, -0.102578, -0.199350, -0.149129, -0.295394, -0.535086, 0.108692, -0.332091, -0.676333, 0.186422, 0.118425, -0.489626, -0.343943, 0.307079, 0.141284, -0.016211, 0.379651, -0.292968, -0.748152, 0.189835, -0.426447, -0.364755, 0.528236, 0.394534, 0.367366, -0.418629, -0.388922, -0.091739, -0.135488, 0.159986, -0.592887, -0.540353, -0.472433, -0.046496, 0.261568, 0.276690, 0.199127, -0.032025, -0.425428, -0.085357, 0.253833, -0.277585, 0.094667, 0.331343, 0.026296, 0.303400, 0.170037, 0.040588, 0.251640, 0.065156, 0.018362, -0.085007, -0.051694, 0.296419, 0.109535, -0.435888, 0.180149, 0.355478, 0.327859, 0.406673, -0.160082, 0.089329, 0.472214, 0.424969, 0.412777, 0.116183, -0.278933, 0.094157, 0.002324, -0.029471, 0.008375, 0.123454, 0.107580, 0.075633, -0.074494, -0.022575, 0.134208, 0.360597, -0.147173, 0.241014, 0.345766, -0.251834, -0.110226, 0.215981, 0.339553, 0.110232, 0.117081, 0.132629, -0.274215, -0.173557, 0.200649, 0.157997, -0.249935, -0.233308, 0.286302, 0.245613, 0.181497, 0.036734, 0.211884, 0.016346, 0.122658, 0.264276, -0.202416, 0.009263, -0.560955, -0.273343, 0.241001, -0.390981, -0.021185, -0.079265, 0.379097, -0.268701, -0.208001, -0.281265, -0.128857, 0.254779, 0.237554, 0.018215, 0.311979, -0.294744, 0.387033, -0.167173, -0.141603, -0.387528, 0.189036, 0.120946, -0.121258, 0.215109, 0.016926, -0.173328, -0.268496, -0.133354, 0.064175, -0.445635, -0.052762, 0.119811, 0.169621, 0.065910, -0.060822, -0.119358, 0.086119, 0.068334, 0.005552, -0.283328, -0.002861, -0.226347, -0.643804, 0.146899, -0.234464, 0.081564, -0.100852, 0.063408, 0.164968, 0.226348, -0.740040, 0.058642, -0.238778, -0.169109, -0.159489, -0.342554, 0.160124, 0.161676, -0.213061, -0.107969, -0.579016, -0.404078, 0.271424, 0.169025, -0.835186, -0.396158, 0.294827, -0.371015, 0.007999, 0.087944, -0.397324, -0.204640, -0.809590, -0.195325, 0.133295, -0.293920, -0.073121, -0.957812, -0.113434, 0.086206, 0.287518, -0.158463, -0.261696, -0.535931, -0.298791, 0.007783, -0.181385, -0.596992, -0.029015, -0.212597, 0.117505, -0.100918, 0.174543, 0.339988, 0.055956, -0.266963, -0.193754, 0.287877, -0.005896, -0.286803, 0.157160, 0.228630, -0.076079, -0.369292, 0.143106, -0.260484, -0.324629, 0.021918, 0.328494, 0.014745, -0.154087, -0.149125, 0.184136, 0.051374, 0.121402, -0.305471, -0.262692, -0.204322, -0.240145, 0.372881, 0.090581, -0.301720, 0.036654, -0.285609, -0.006200, -0.123365, 0.297986, 0.060284, -0.698569, -0.392785, 0.328887, -0.139035, -0.293194, -0.277040, -0.211195, -0.100296, -0.425265, 0.188771, 0.054113, -0.041720, -0.335744, -0.721790, 0.204318, 0.318366, 0.125659, -0.227188, 0.176512, -0.219339, 0.229150, -0.180247, -0.363495, -0.389500, -0.371934, 0.300523, 0.383309, -0.220316, 0.238065, 0.070840, -0.055872, 0.411163, 0.284931, 0.138076, 0.544971, 0.396973, 0.036886, -0.067811, 0.206633, 0.168722, 0.225094, -0.266848, 0.073577, 0.168407, -0.044597, -0.072026, 0.427501, -0.332716, 0.142431, 0.054913, -0.165000, 0.261138, -0.195555, -0.067756, 0.387030, 0.180321, 0.084937, -0.368937, 0.088547, -0.072948, 0.049006, -0.201021, -0.104049, -0.087939, 0.260242, -0.101603, -0.000537, 0.011525, -0.065199, -0.092265, -0.543139, -0.124469, 0.204528, 0.014389, 0.200014, -0.235503, 0.224372, -0.065278, -0.048945, 0.223499, -0.006416, 0.290462, 0.021250, -0.114738, -0.250371, 0.171308, -0.077542, 0.184631, 0.226974, 0.270798, 0.298446, -0.236972, 0.278196, 0.339148, 0.086936, -0.011869, 0.049046, -0.010106, -0.238811, 0.035564, 0.278676, -0.226901, -0.031426, -0.322721, 0.225956, 0.003038, -0.412771, -0.039377, 0.107420, -0.170636, 0.163656, -0.087982, 0.122567, 0.042765, -0.784986, 0.163723, -0.078081, 0.308528, -0.196745, 0.202542, 0.041198, -0.497087, -0.155961, -0.226507, 0.038057, -0.440823, -0.281272, 0.133755, -0.000677, -0.076072, -0.164662, 0.334398, 0.123987, -0.074488, 0.265349, -0.133624, 0.067852, 0.110941, 0.276345, -0.159230, 0.295023, 0.154626, -0.195670, -0.228249, -0.308953, -0.098277, 0.135270, 0.245280, 0.206114, -0.274861, 0.372293, 0.320366, -0.031601, 0.283016, 0.246844, -0.029650, 0.253391, 0.194056, 0.166239, -0.413549, -0.936834, -0.370930, -0.062197, -0.701498, 0.202398, -0.001277, -0.135422, 0.106069, -0.442795, -0.172705, 0.102023, 0.273035, 0.250749, -0.292544, 0.241288, -0.332172, 0.208643, 0.350430, 0.608226, -0.789147, 0.094833, 0.192656, -0.296133, -0.472064, -0.342041, 0.108824, 0.363151, -0.329044, -0.089376, 0.382873, 0.365404, 0.460701, 0.097363, 0.076309, 0.380184, 0.272132, -0.079004, -0.460822, -0.121629, 0.358154, -0.055941, -0.104112, -0.072036, -0.059184, -0.015232, -0.128476, -0.192757, 0.277050, 0.295723, 0.294574, -0.120926, 0.158886, -0.205973, -0.075920, 0.149820, -0.175757, -0.119672, -0.040159, 0.329390, 0.296982, -0.319313, 0.225300, -0.169131, 0.118576, -0.067436, 0.307671, 0.005241, -0.218927, 0.139188, 0.353653, 0.068138, -0.492039, 0.214335, -0.017413, -0.253961, -0.006570, 0.430149, 0.069672, -0.140834, -0.251281, 0.277369, 0.068684, -0.193527, -0.006124, 0.103659, -0.196773, -0.229161, -0.308445, 0.153035, -0.449497, 0.241691, 0.300976, 0.267265, -0.530905, -0.102082, -0.083820, 0.186923, -0.188722, -0.225258, 0.020319, 0.164738, 0.199989, 0.083174, -0.208718, 0.355599, -0.126749, -0.096111, 0.099385, 0.343428, -0.086611, -0.103698, 0.286162, -0.419384, -0.220646, -0.062922, 0.064617, -0.069897, -0.289425, 0.146936, -0.096335, 0.068358, 0.326562, -0.325876, 0.097701, 0.149958, 0.353831, 0.132994, -0.167422, 0.147986, 0.132319, 0.174239, -0.117341, -0.028245, -0.088237, 0.233727, 0.236118, -0.253403, -0.135661, -0.173223, -0.016580, 0.221719, -0.005549, 0.085961, 0.097051, 0.124434, 0.274327, 0.132560, -0.296920, -0.033610, 0.018450, -0.142891, -0.167731, -0.069736, 0.082543, -0.136879, -0.221797, -0.098567, -0.015071, 0.193743, -0.263098, -0.340192, -0.363651, -0.137270, 0.224481, -0.138268, -0.188902, 0.251475, 0.216317, -0.356196, -0.138332, -0.245117, -0.137491, -0.255241, 0.026102, 0.326515, -0.174561, 0.020886, 0.249329, -0.051292, 0.042938, -0.187020, -0.118442, 0.002952, -0.086501, -0.182248, 0.271471, -0.101980, -0.213586, -0.351474, -0.022298, 0.278185, -0.155236, 0.202444, -0.021071, -0.020208, -0.057025, 0.428106, 0.349635, 0.244776, 0.016292, -0.151550, -0.247712, -0.276403, 0.315703, 0.187621, -0.245247, 0.424934, 0.091160, -0.213187, -0.226613, -0.326710, 0.162496, -0.238393, -0.244355, -0.014411, -0.388656, -0.342305, -0.255723, -0.280470, -0.164369, -0.288055, -0.317207, -0.042170, -0.331595, -0.244435, -0.058486, -0.245454, -0.467585, 0.119276, 0.109548, -0.055800, -0.541784, 0.020947, 0.158751, -0.206151, -0.202476, 0.108729, -0.006266, -0.048338, 0.180990, -0.001654, -0.186462, 0.201641, -0.199414, -0.175102, -0.001858, 0.050821, 0.327572, -0.232086, 0.203077, -0.228189, -0.180198, 0.354907, -0.355083, -0.032300, -0.144741, 0.353348, -0.036764, -0.117458, -0.178420, -0.015892, 0.387885, -0.138697, 0.120338, -0.064157, -0.248807, 0.405300, 0.279763, 0.562591, 0.469033, -0.026217, -0.243913, -0.182164, 0.061704, 0.317430, -0.204109, -0.255630, -0.056912, 0.481432, 0.057745, 0.262738, -0.008415, -0.066680, 0.049798, -0.042363, 0.014737, 0.218794, 0.200849, -0.332186, 0.359179, 0.279390, -0.119677, -0.020912, 0.016602, -0.001806, -0.043912, -0.015521, 0.197310, 0.065064, 0.240378, -0.194547, -0.046067, 0.352324, 0.275955, 0.235881, -0.289685, -0.229034, -0.183710, -0.289935, 0.025043, 0.104481, -0.234102, 0.223825, -0.187940, 0.288981, 0.240119, 0.138418, 0.022954, -0.307847, 0.034148, 0.000150, -0.136079, -0.251957, 0.052127, 0.297844, -0.224354, 0.073851, -0.183787, -0.249365, 0.285985, 0.076952, 0.247963, 0.002559, 0.271556, -0.158007, 0.108969, 0.073316, 0.343663, -0.262459, 0.265610, 0.188722, -0.058231, 0.056502, 0.289654, 0.079628, 0.020593, -0.028779, 0.010578, -0.220417, 0.163267, 0.053357, -0.044434, 0.055135, -0.162670, 0.151875, -0.055469, -0.282791, 0.326007, 0.013221, -0.174616, 0.242629, -0.137479, -0.022231, 0.206431, -0.143781, -0.299478, 0.024266, 0.223496, 0.184096, 0.021148, 0.186491, -0.073776, 0.055799, -0.009861, -0.095919, -0.253252, -0.076441, -0.200726, -0.017896, 0.094502, 0.110269, -0.055608, 0.057958, 0.019527, 0.075753, -0.379815, 0.116485, 0.265325, 0.123885, 0.201630, 0.014086, -0.013180, 0.427281, -0.001418, 0.436410, 0.144807, 0.155894, 0.371116, 0.362367, 0.031530, -0.062151, -0.299639, 0.434277, 0.121416, 0.142711, -0.173322, 0.531948, 0.388435, 0.294222, 0.099029, -0.286417, 0.020034, 0.466714, -0.184679, 0.243999, 0.090219, -0.148596, -0.095960, 0.099460, -0.092018, 0.095172, 0.277898, -0.063452, 0.168118, -0.130959, -0.249168, -0.189071, 0.100539, -0.168916, 0.106330, 0.235001, 0.038238, 0.283602, -0.056629, -0.345706, -0.149624, 0.043349, -0.173482, -0.306271, 0.190816, 0.240623, 0.049278, 0.310632, 0.070217, 0.203417, -0.034140, -0.088541, 0.074103, -0.229527, 0.054773, 0.477769, 0.008716, -0.075269, -0.278455, 0.036323, 0.173337, -0.156203, -0.177837, 0.049728, -0.068148, 0.114841, -0.313792, 0.222867, 0.203625, 0.127557, 0.208329, -0.150463, -0.371442, 0.156273, -0.041813, 0.142604, -0.114855, -0.309329, 0.086774, 0.140180, -0.049494, 0.074373, -0.206620, 0.220620, 0.218389, 0.258960, -0.322507, 0.243385, -0.001325, 0.097514, -0.061997, -0.132819, 0.383857, 0.092742, -0.292515, 0.159158, 0.188255, -0.228489, 0.322005, -0.045708, 0.152693, 0.215387, 0.122103, 0.337536, 0.260070, -0.204170, 0.000988, -0.056116, -0.013770, -0.006813, 0.357362, 0.333377, -0.070668, -0.144114, 0.015613, -0.017272, -0.459908, -0.311701, -0.265468, -0.163722, -0.736377, 0.301203, 0.279356, 0.241035, -0.124259, -0.106735, 0.005502, -0.740382, -0.083909, -0.147886, -0.051010, 0.313666, -0.009130, 0.153731, -0.161587, -1.002403, -0.155738, 0.111806, -0.014555, -0.954140, 0.241594, -0.841249, 0.038001, 0.066485, -0.313938, -0.666493, -0.430448, 0.019736, -0.077734, -0.290356, 0.085648, -0.139777, -0.209252, 0.188136, -0.087082, 0.383245, -0.599654, 0.133296, 0.066038, -0.158504, -0.302023, -0.134814, -0.323319, 0.162306, 0.420678, -0.187701, 0.311148, -0.461178, -0.204320, -0.238239, 0.254655, -0.540399, -0.122379, 0.196495, -0.388161, 0.223736, -0.026752, -0.421658, -0.383533};
#endif

#endif
