//Numpy array shape [32, 5]
//Min -1.039907693863
//Max 0.878373503685
//Number of zeros 0

#ifndef W11_H_
#define W11_H_

#ifndef __SYNTHESIS__
model_default_t w11[160];
#else
model_default_t w11[160] = {-0.0979156866670, -0.0646353885531, 0.2682452201843, -0.0174098145217, -0.3610378503799, -0.5004498362541, -0.1707436144352, 0.4656718671322, 0.0136009640992, 0.0650551840663, -0.5719348192215, -0.3415523469448, -0.0912188068032, 0.6453866958618, -0.3770742714405, 0.2526375353336, -0.2179535627365, -0.2752533853054, -0.3446903526783, -0.2080351412296, 0.1822239905596, 0.2921390831470, 0.1763031333685, -0.1162090152502, -0.1158198192716, -0.1549350172281, -0.1237830147147, 0.6255505084991, 0.5563178658485, -0.4129990041256, -0.2589545845985, -0.0724041163921, -0.3412149250507, 0.1882246881723, -0.1587027758360, 0.4453881680965, -0.1732686609030, -0.3589997887611, -0.2582839429379, 0.0607336647809, 0.0917230024934, 0.3333837091923, -0.1961789131165, -0.0879631116986, 0.2506622374058, 0.2441439777613, 0.0148944100365, 0.1800109893084, -0.6095960736275, 0.3761673569679, 0.3185195028782, -0.2429051846266, -0.0569652169943, 0.4316122829914, -0.1218981668353, 0.2209054082632, -0.0673880949616, -0.2532593309879, -0.0790872871876, 0.0126959560439, -0.4802589714527, -0.4182298779488, -0.4898709356785, -0.2072577625513, 0.2927563488483, 0.4087788760662, -0.1650061905384, -0.2263582050800, -0.1939469724894, -0.2150643765926, 0.1474649608135, 0.1251990348101, -0.6338334083557, 0.3524192273617, 0.3077946305275, -0.0220860522240, -0.3136966228485, -0.3058460354805, 0.6033263802528, -0.1342045366764, 0.1919322311878, 0.0850162878633, -0.0777926966548, -0.1835804283619, -0.2861265540123, -0.0148586239666, -0.2149834483862, 0.4044744074345, 0.0358527973294, -0.1674526184797, -0.0155627550557, 0.2857536077499, 0.1862314343452, -0.1566839814186, -0.0808928385377, -0.5001584291458, 0.3151926100254, -0.0543981418014, -0.1707656681538, -0.0327964723110, 0.2676463723183, 0.0547954514623, -0.7654573917389, -1.0399076938629, 0.8783735036850, -0.2188067436218, -0.2047211378813, 0.3340373039246, 0.6027262210846, -0.4753067195415, -0.1292552351952, -0.0921418443322, 0.1011710986495, 0.0055735828355, -0.2519479990005, 0.1616438031197, 0.0402224883437, -0.1991958320141, 0.1712330728769, -0.2816055417061, -0.3276306986809, -0.1547268480062, 0.0448797345161, 0.4931863546371, 0.5421478152275, -0.3138783276081, 0.0106468703598, -0.2979989349842, 0.3731549680233, 0.0701940879226, -0.3119004666805, -0.4073609709740, -0.2125852108002, 0.3116561174393, 0.3882939219475, -0.3240844607353, -0.4400739073753, -0.1065314337611, 0.0289041306823, -0.0391027815640, -0.0076336553320, -0.2416747808456, 0.0320592597127, -0.3692271113396, -0.0872308760881, -0.3678911328316, -0.0364814102650, 0.3989056646824, 0.1342241317034, -0.0107619026676, 0.4158277213573, -0.3725680708885, -0.1205891966820, -0.5278058648109, 0.3122586905956, -0.3842788338661, -0.2703250050545, 0.2724758982658, -0.3468341231346, 0.5992386937141};
#endif

#endif
