//Numpy array shape [64, 32]
//Min -0.827760398388
//Max 0.501576185226
//Number of zeros 0

#ifndef W5_H_
#define W5_H_

#ifndef __SYNTHESIS__
model_default_t w5[2048];
#else
model_default_t w5[2048] = {0.1512371301651, 0.0413800440729, 0.1951992362738, 0.3055274784565, 0.1736910343170, 0.0197227019817, 0.0606845058501, 0.1408933401108, 0.1346749961376, -0.0126073379070, 0.3055265843868, 0.0988070741296, -0.1840632557869, 0.1819350868464, 0.0231205094606, 0.1831974536180, 0.1537946015596, 0.0570610351861, -0.1020061299205, -0.1876354515553, 0.1491957604885, 0.2303279191256, -0.0595076233149, 0.0853987038136, 0.0066071581095, 0.2696127295494, 0.2928455173969, 0.1152199134231, 0.0826425999403, 0.1260641366243, -0.0128453439102, 0.0442782789469, -0.0592442043126, -0.0382704995573, 0.1902824789286, 0.2405702024698, -0.0197922103107, -0.1721452772617, -0.0474330522120, -0.0621153973043, 0.1870919018984, 0.2175354510546, 0.1391702592373, 0.0930074676871, -0.0589391477406, 0.1303687989712, 0.1646745055914, 0.1512255519629, -0.1448694914579, -0.0481942109764, 0.2110814750195, -0.1559204161167, 0.1628365367651, 0.2567183673382, -0.0967447459698, -0.1682962775230, 0.1485114842653, -0.0733784660697, 0.1205014437437, 0.0274047944695, 0.0805694982409, 0.0107952607796, 0.0685113742948, -0.2901636362076, 0.1133498474956, -0.1858118325472, 0.0560597777367, 0.2331774383783, 0.1819660961628, -0.0794170200825, -0.2881696820259, -0.0110959606245, 0.0560449436307, -0.1424488872290, -0.0705372244120, 0.1339656263590, 0.0095885545015, 0.0988300964236, 0.2699757516384, -0.0815810337663, -0.1523490548134, -0.1168948113918, -0.0786049738526, -0.1617704331875, -0.0376811251044, -0.0411612465978, -0.0224561057985, 0.0806269720197, 0.0765837654471, 0.0415705144405, 0.1224780157208, -0.0670221969485, -0.0921480879188, 0.1808936893940, 0.0252794735134, -0.0301121361554, -0.0531613305211, 0.0860983505845, -0.3892335891724, -0.3008819520473, -0.0300058312714, -0.2464040964842, 0.2989617288113, 0.3496092855930, -0.2275805920362, 0.3337606489658, 0.0612055696547, 0.1507686972618, 0.2317271828651, -0.0453521274030, -0.3112133443356, -0.0480470843613, -0.1451473534107, -0.0761149525642, -0.3117548227310, 0.1624431312084, 0.1250465810299, -0.4733886122704, -0.2279983460903, 0.3298523128033, 0.0519192330539, -0.1606417149305, -0.3434967994690, 0.1124198064208, -0.0483405701816, 0.1405909359455, -0.1246754452586, 0.2838118374348, 0.1372334063053, -0.1021436154842, -0.2465217858553, 0.1965593397617, 0.0099919652566, 0.0579210110009, 0.1635297536850, 0.1198698952794, -0.1144710853696, -0.0494493730366, -0.1692694872618, -0.2180176973343, 0.1946153342724, -0.1254198849201, -0.0034708050080, 0.1343505233526, 0.0845124870539, -0.0699721723795, 0.2141966223717, 0.0298718288541, -0.0826861113310, -0.1779650300741, 0.2421321421862, -0.2235503196716, 0.2123643606901, 0.0586609244347, -0.2186252176762, -0.1619571000338, 0.2181467711926, -0.1960629969835, 0.1889070868492, 0.0088976370171, -0.3509103059769, 0.2352757304907, -0.0698442757130, 0.0094970557839, -0.0046234121546, -0.0184175372124, 0.1032084450126, -0.1100722104311, 0.1719879209995, 0.0814497992396, 0.1507392227650, -0.2957695126534, 0.0651729330420, 0.0618522651494, -0.4547688364983, 0.3045025765896, 0.0919105857611, -0.1995478719473, -0.0288643669337, 0.1819176375866, -0.0063796532340, 0.0249297190458, -0.4364123642445, 0.1253924816847, 0.0731362700462, 0.1342599540949, -0.3866470754147, 0.2537968456745, 0.1464118212461, 0.0104811703786, -0.6888116002083, 0.1756653040648, -0.3542986512184, 0.1465677767992, 0.0406289324164, -0.4163386821747, -0.1783676743507, 0.2038119584322, 0.3022805154324, -0.0940156430006, 0.1931972056627, -0.1706643551588, 0.0193740725517, -0.2211319506168, -0.1374822109938, -0.2169947326183, -0.6424154043198, 0.0396980307996, 0.2666898071766, 0.0957238823175, 0.1643095910549, -0.1031571030617, -0.0155365327373, 0.1890598535538, -0.2882797122002, 0.1563654392958, -0.0870350301266, 0.2104235440493, -0.3800286054611, 0.1374937891960, 0.2040285319090, -0.0431189686060, -0.8277603983879, 0.1622220873833, -0.2310496568680, 0.2737177014351, -0.1649691015482, -0.1228926703334, -0.0064834142104, 0.0328682400286, -0.0885271579027, -0.2316508740187, -0.0887836068869, 0.0703329965472, -0.1753883510828, -0.0141619993374, -0.1553267985582, 0.0921421423554, -0.1434050351381, 0.0592951849103, -0.1258111298084, -0.0276250205934, 0.2596815824509, 0.1706122606993, -0.0504213050008, 0.1825856268406, 0.0405835062265, 0.0403790585697, 0.2170719206333, 0.2032068073750, -0.1086850240827, 0.2200709134340, 0.1341317594051, 0.0272827614099, 0.0505821183324, 0.0725283548236, -0.1721076667309, 0.0462649725378, -0.0540946274996, 0.0476457849145, 0.1758356541395, 0.3133658766747, 0.2184281945229, -0.0442038998008, -0.2463253438473, 0.0352128073573, -0.1461985856295, 0.0243420973420, -0.0819680467248, -0.1299725770950, -0.3258394002914, -0.0804148763418, -0.0326894931495, -0.1869801431894, -0.0717690587044, -0.1117241159081, -0.2113500237465, 0.0786727219820, -0.0663438886404, -0.1691488921642, 0.1131288111210, -0.0288350749761, 0.1842180639505, 0.1920863687992, -0.1125335246325, 0.1266700327396, 0.0390729196370, 0.3016426265240, -0.0078706201166, -0.0455261953175, -0.1542147248983, 0.2017011642456, 0.1822529435158, -0.1166367456317, -0.1758719384670, -0.0762958377600, 0.0013601428363, -0.0126467486843, 0.0364534668624, 0.1433905959129, 0.0290382914245, 0.2326838523149, -0.0145583041012, 0.1566409766674, -0.1969545036554, -0.0243047419935, 0.0467377342284, 0.0769958794117, -0.0446891672909, 0.0048935227096, 0.0123547799885, 0.0902601107955, 0.0142948096618, 0.1451624780893, 0.1269237399101, 0.2476593554020, -0.1454162597656, 0.0999635532498, 0.2147273272276, -0.2343987822533, -0.0199360828847, 0.0846952348948, 0.1721431612968, 0.1712664067745, -0.1426044404507, 0.0639301985502, -0.1699099242687, -0.0060230456293, 0.0321439467371, -0.0072167934850, -0.0345586352050, -0.0401605106890, -0.0175622180104, -0.0733342692256, -0.0380524508655, 0.1296796798706, 0.0923234820366, 0.0348955132067, -0.0663518011570, 0.1759963780642, -0.0524217635393, 0.2660721242428, 0.0692887529731, -0.0268886778504, 0.0133931795135, 0.1113467290998, 0.0989459231496, 0.2021126449108, -0.1182933151722, -0.0873357132077, -0.0642133504152, -0.1432836204767, 0.2127191722393, 0.1035167500377, -0.0731777697802, 0.3139780759811, 0.2657957673073, 0.0308211240917, -0.1084698215127, 0.1127628386021, 0.1371421068907, -0.0530368536711, 0.1619023680687, 0.0906753018498, -0.0067794504575, 0.2411356866360, 0.2643339931965, -0.1668612062931, 0.1548405885696, -0.0761719942093, 0.0253332965076, -0.0543109849095, 0.0700917243958, 0.0113583793864, 0.2882742285728, -0.1054830551147, -0.0865208208561, -0.0855873376131, 0.0473903715611, 0.0623038560152, -0.0189155209810, 0.2571630477905, 0.0265936553478, -0.0960619226098, 0.1394288241863, -0.0426325164735, 0.1698652356863, 0.1311910152435, 0.1325376480818, 0.0678065344691, -0.0698951706290, -0.1842036545277, 0.0476765073836, 0.0407306216657, 0.1605817973614, 0.0243687573820, 0.1683819442987, -0.0372349284589, -0.1988736093044, -0.0659667700529, 0.2165456861258, 0.0006655748584, -0.0931572839618, -0.0844859108329, 0.0961193665862, 0.1004279255867, 0.0406179279089, 0.1443041265011, 0.0546702668071, 0.1309857815504, 0.0049410345964, -0.1013216003776, -0.0454882420599, 0.1528930664062, 0.0105742448941, -0.0016470592236, -0.1370319575071, -0.0749260783195, 0.1680423170328, -0.0299215074629, 0.0337188877165, -0.0175015814602, 0.0827555134892, -0.0870827585459, 0.2723057866096, 0.0574744306505, -0.1021780744195, 0.0531378351152, -0.0178660899401, -0.0074803507887, 0.0687307193875, -0.0682032257318, -0.0774174556136, 0.0105935353786, 0.1343842148781, 0.1469477564096, -0.0274696797132, 0.2154270559549, -0.2371287047863, 0.1454875916243, 0.0785027071834, -0.0896945744753, 0.1774073839188, 0.0941269770265, -0.1910032629967, 0.1621766388416, 0.0763510093093, 0.1608925461769, 0.1050946488976, -0.0403332039714, 0.0553506761789, 0.0580442547798, -0.0009888603818, -0.1287969648838, -0.0132605899125, -0.0388527549803, -0.1305249482393, 0.2822808325291, 0.3476528227329, 0.0949027314782, -0.1755437999964, 0.0885127633810, 0.3350987732410, 0.0075492509641, -0.1346414536238, 0.0189724080265, 0.2230271100998, 0.0098943198100, -0.0536684319377, -0.1540282815695, -0.0067192637362, 0.0262067262083, 0.1555140167475, -0.1876433193684, 0.0661511570215, 0.1354945898056, 0.0246715079993, 0.1358495503664, -0.0720649510622, -0.0258955620229, -0.1976667791605, 0.0999926701188, -0.0983886346221, 0.1069074571133, 0.0287528894842, 0.1993939131498, -0.1778707951307, -0.0975152626634, 0.1513998210430, -0.0950048863888, -0.0076520675793, 0.1261684149504, -0.2066599428654, 0.1944825798273, -0.1373799294233, -0.1729808598757, 0.0098560759798, -0.1238195598125, -0.0955675244331, 0.1717839539051, -0.0095249395818, -0.1283273398876, -0.1599128097296, -0.0515294075012, 0.1412671208382, -0.0393386036158, 0.1859038472176, -0.0592780783772, -0.0898518413305, -0.1723697334528, 0.0763060078025, -0.1567066013813, 0.0491315610707, 0.0362650491297, 0.1379857659340, -0.1422318518162, 0.1599694043398, 0.1197133138776, -0.1159818619490, -0.0781405419111, 0.0950639694929, 0.0792803838849, -0.0827119871974, 0.2758643925190, -0.1719817072153, -0.0885177105665, 0.2423722893000, 0.1466842293739, 0.0169645193964, 0.2482988983393, -0.0179707966745, 0.0438726432621, -0.0917909443378, 0.0655593425035, -0.0379160381854, 0.2177509814501, 0.1066275388002, -0.2060461193323, -0.0057912287302, -0.0019503869116, -0.1451473236084, -0.1585866510868, 0.1974654793739, -0.1522169858217, 0.1553459763527, 0.4911777973175, 0.2785157561302, -0.0052204374224, 0.1951469480991, 0.1550563722849, 0.0674687623978, -0.3306686282158, 0.2399789988995, 0.0113045712933, 0.0672456324100, 0.1400045752525, -0.2884627878666, 0.1929713636637, 0.0961771532893, -0.2169556766748, 0.2887996137142, -0.1251675337553, -0.1797892302275, -0.0491582974792, 0.4218213260174, 0.2450233995914, 0.3691990375519, 0.3828448653221, -0.3257089555264, 0.3685525953770, 0.2714806497097, -0.0026677520946, -0.0757427290082, 0.2254540473223, 0.0411388948560, 0.0780749320984, -0.0095767192543, 0.3358150422573, -0.0019719628617, 0.0836040601134, 0.0148057844490, 0.2530273199081, -0.1989347785711, -0.0951213613153, -0.0084262937307, 0.0464428104460, 0.1901607513428, -0.0374182611704, -0.0197881292552, -0.1270816624165, -0.1280653327703, 0.1800272166729, 0.0429488718510, 0.1899100095034, 0.2578512728214, -0.0729443654418, 0.2169006317854, 0.2229964286089, 0.2193021625280, 0.3262342810631, -0.2230922281742, 0.0946333631873, 0.0823151171207, 0.1405459940434, 0.1460565477610, 0.0062510930002, -0.0364204756916, 0.0483414493501, -0.0378997959197, 0.1491275727749, 0.2262286245823, 0.1646841764450, 0.2706263065338, -0.2026473730803, -0.0666873976588, 0.1707761585712, 0.1493531912565, -0.0629121586680, -0.0970908403397, 0.1622087657452, -0.0452189370990, -0.0627576187253, 0.0319881625473, -0.1190605685115, 0.1699884533882, -0.0257315952331, -0.1712050139904, 0.1527187228203, -0.0708576440811, -0.0116393920034, 0.0429710522294, -0.0799242630601, -0.0007953965105, 0.0456254854798, 0.1598149091005, 0.1952333599329, 0.0688447579741, 0.0629115253687, -0.0424522608519, -0.1946223229170, -0.1160506010056, -0.1481637954712, -0.2899563610554, 0.2862514555454, -0.0278984941542, 0.1996055990458, 0.1537291407585, 0.0780387744308, 0.1347686946392, -0.1374382078648, -0.0844606980681, 0.0463734120131, 0.1729947328568, 0.0879511237144, -0.0476975105703, -0.0015563867055, 0.0717348158360, -0.0046441648155, -0.2514069378376, 0.1295124590397, -0.0461659803987, 0.0169964395463, 0.0487744994462, -0.0107924854383, 0.1318675875664, -0.2229712307453, -0.1237809285522, 0.0924477875233, -0.0304793231189, -0.0970684960485, -0.5965074300766, 0.1292630881071, 0.0643093958497, -0.1680262386799, -0.1153880208731, 0.1617955565453, 0.0777976810932, -0.2883583009243, -0.0989167019725, 0.0176412817091, -0.2353849709034, 0.2099270522594, 0.0909337997437, 0.0640440806746, 0.0215019732714, 0.1165936440229, -0.2118480056524, 0.1741560399532, -0.1952106356621, -0.1628307551146, -0.1219237521291, 0.1428478509188, -0.0982111021876, 0.0427935644984, 0.2168759703636, 0.0080461166799, -0.0965275317430, 0.0962392538786, 0.1673286408186, -0.1192369386554, 0.0574029833078, -0.0950452163815, 0.0014630174264, -0.0666605681181, -0.2845633924007, -0.0005605333718, 0.0878475382924, -0.1732340306044, -0.0026472196914, 0.0359002090991, 0.2065052390099, 0.2475836873055, -0.2571568489075, 0.1779745817184, -0.2843967974186, -0.0115623166785, -0.0347600579262, -0.1691438406706, -0.0724213495851, 0.1474867165089, -0.1184266358614, -0.1054200977087, -0.0510593578219, 0.1549340635538, -0.0216697733849, 0.2042815983295, 0.0690049156547, 0.0944539159536, -0.2274435460567, -0.0273593980819, 0.1227913200855, 0.0553311109543, -0.1744009107351, 0.3161173164845, -0.3028970658779, 0.1515627205372, 0.0077225351706, -0.2284633368254, -0.0252110753208, 0.2425114214420, 0.0724990293384, -0.2537598609924, 0.2013775855303, 0.2336674034595, 0.1133503615856, 0.1021969616413, 0.0380341559649, 0.1717901229858, -0.0123463813215, -0.0332751236856, 0.3294568061829, 0.0256371553987, -0.1041126027703, 0.1506009846926, 0.0960891172290, -0.1333078742027, 0.0277798194438, 0.0506575591862, 0.3162215948105, -0.2034626901150, 0.2515297234058, -0.2379813641310, 0.2709293961525, -0.1009145155549, -0.1487970948219, 0.1322394311428, -0.1394873857498, -0.0655281841755, 0.1048455238342, -0.3414396047592, 0.2957445681095, -0.0324619114399, -0.1418695747852, -0.1911646872759, -0.5314590930939, -0.1235193237662, 0.0197732839733, 0.1672915965319, -0.3870445787907, -0.1715233176947, -0.2241349071264, -0.3195396661758, 0.2081320136786, -0.1746019870043, 0.1989938765764, 0.1650213003159, 0.0862545520067, 0.1733574271202, 0.0300727449358, 0.0095633538440, -0.3412860035896, 0.1102647930384, 0.0802446380258, 0.0335717983544, 0.2207912057638, 0.1426757127047, 0.2485087811947, -0.2159991264343, 0.3326767086983, -0.3741424977779, 0.1231165155768, -0.0250041559339, -0.1702222377062, 0.2660509645939, 0.2010780274868, 0.0398381799459, -0.1490160077810, -0.0963573753834, 0.0392486266792, -0.1473854780197, 0.0206444635987, -0.1753486245871, 0.1157310158014, 0.2135250419378, -0.0632900074124, 0.1076059117913, -0.1599606871605, 0.1664288938046, 0.2159549146891, -0.0396664589643, 0.0384915433824, 0.0891080647707, -0.0780636370182, 0.1725421994925, 0.2151781469584, 0.1377708464861, -0.0722446814179, 0.1770580857992, -0.1178650930524, 0.1043352708220, -0.1384826749563, 0.2373551130295, -0.1522427499294, 0.1178086474538, 0.1492233127356, 0.0868626311421, 0.1368573457003, -0.1201272234321, 0.0819600000978, -0.1011946424842, 0.1587776392698, 0.0232664961368, 0.0492665842175, 0.0109189404175, 0.0300337076187, 0.0658400282264, 0.2063158005476, -0.1302675008774, 0.2495742142200, -0.3429443240166, -0.0886295661330, 0.0039772107266, -0.0954373776913, -0.0443292148411, 0.2269787192345, 0.2886000573635, 0.1646895408630, 0.1103940159082, -0.0071243839338, -0.0818700045347, 0.1378033012152, -0.0994600430131, -0.1943152397871, -0.1699463576078, -0.1819204390049, -0.1726781725883, -0.0604864656925, 0.0084237707779, 0.1408873647451, -0.1414462029934, -0.1391484290361, -0.0894031748176, 0.0348596721888, 0.1448252499104, -0.2741623520851, -0.0992069318891, 0.1542221456766, -0.0322585068643, -0.0931877642870, -0.0039859297685, -0.0628819167614, 0.2818534970284, -0.0331242345273, 0.1745185554028, 0.3000278174877, 0.0222675483674, -0.2161839157343, 0.2249926477671, 0.1337615102530, -0.0876572430134, -0.0514170974493, -0.0089369295165, -0.1748849898577, -0.0201172232628, 0.0372636839747, -0.1813613325357, -0.0688731595874, -0.0762111097574, 0.2652804553509, -0.0812946632504, 0.0425356142223, -0.0275822263211, 0.0658457055688, -0.2814253270626, 0.1720984429121, -0.4453697204590, -0.4253820478916, -0.1919825226068, 0.1143463775516, 0.1383187472820, -0.1780139207840, -0.3509648442268, 0.1813650280237, 0.0411944203079, -0.2386664599180, 0.0305876843631, -0.1553833335638, 0.3284716606140, 0.2314020842314, 0.0360399484634, -0.2402035593987, 0.1445734053850, -0.3259222805500, 0.1492968350649, -0.2772414386272, -0.3758943676949, -0.3614906966686, 0.1932023614645, -0.2460776567459, 0.2004323601723, -0.1076095029712, -0.2792808711529, -0.0157765541226, 0.2639982998371, -0.0331848002970, -0.0993559285998, 0.0216580592096, -0.1043509691954, -0.0894354954362, -0.2334963977337, 0.1986253261566, -0.2956585586071, 0.1156892329454, -0.3399866819382, 0.3074615895748, 0.0339417867362, -0.1560750603676, -0.2377306371927, 0.3584975302219, -0.2801141738892, -0.0574254877865, 0.1221466287971, 0.1563063859940, 0.0658020824194, -0.1292599439621, 0.1181026771665, -0.2158651053905, -0.3427997827530, 0.1684262305498, -0.2818548679352, 0.1595593839884, 0.0754551067948, 0.0498141050339, 0.1971903145313, 0.0771989375353, 0.0736015141010, -0.1184310093522, 0.0320536457002, -0.0410018749535, -0.2249840050936, -0.2181745469570, 0.2243109941483, 0.2274824529886, 0.1430758237839, -0.2000853866339, -0.0786409452558, -0.0659034028649, 0.1647956520319, -0.1431995779276, -0.0948875248432, -0.0184461250901, -0.0394395217299, -0.0907923504710, -0.1024526208639, 0.1655653715134, -0.1298562735319, 0.1044144853950, -0.1136387288570, 0.1252259463072, 0.1388094574213, -0.2586111128330, 0.0117723029107, 0.0294270608574, -0.1432302743196, -0.1210854500532, 0.0068278070539, 0.0335953608155, -0.1401207298040, 0.0506931059062, -0.0350696891546, 0.0821427032351, 0.0485260970891, -0.0766672268510, 0.0409908331931, 0.2366030663252, -0.0808272585273, -0.1762716919184, 0.2314961701632, -0.1642511039972, -0.2433357387781, -0.0168984476477, -0.0604095272720, -0.2080469727516, -0.1017189770937, -0.1791419684887, -0.1319920569658, -0.0651903524995, -0.0765750557184, -0.2050336897373, 0.0741318017244, 0.2894107401371, -0.0742265135050, -0.3499159216881, 0.2206932157278, -0.0475433878601, -0.0329401642084, -0.3087448179722, -0.0418321862817, -0.2152016907930, -0.0120592024177, 0.1403646618128, 0.3118023574352, -0.0946373119950, 0.0488364920020, 0.0930976793170, -0.1111318990588, -0.0331648439169, -0.1700979024172, -0.1840804666281, 0.3378905355930, -0.2192812114954, -0.1104208081961, 0.1777191311121, -0.0749393105507, 0.0250656362623, 0.2012135982513, -0.0188891645521, 0.3058263361454, 0.0869556814432, -0.0380882285535, -0.0998653247952, -0.0974861383438, 0.1024136021733, -0.0464568361640, 0.0310499798506, 0.3888394236565, 0.1339808255434, 0.0117766987532, 0.1673935651779, -0.0962341353297, 0.1066379174590, 0.0770022124052, -0.1690036356449, -0.1397714018822, -0.0061247553676, -0.0430432520807, 0.1761755198240, 0.0607485659420, 0.0942901447415, -0.0790096670389, -0.0697321966290, 0.2267459928989, -0.0251216366887, -0.1105659157038, 0.0214706305414, -0.2635838985443, -0.2185194790363, -0.0510166659951, 0.1019986569881, -0.0605176798999, 0.1484549641609, 0.1579890996218, 0.1435135155916, -0.1244734078646, -0.2616931498051, 0.0996577739716, -0.1519810706377, 0.1882052123547, 0.0541353076696, -0.1200921460986, 0.0818007886410, 0.2319603711367, 0.0533405654132, 0.1072779446840, 0.0844461172819, -0.0584748908877, 0.2788383662701, 0.0356736257672, -0.0794438421726, -0.1348883956671, -0.1473318189383, 0.0268280431628, -0.0796445831656, -0.0323646366596, -0.0439081080258, 0.1120807155967, 0.0509911775589, 0.0612014383078, 0.1274424046278, 0.1504160016775, 0.2531835436821, -0.1723906844854, 0.1462316215038, -0.0968025550246, 0.0012494161492, -0.1559612154961, -0.0238555017859, 0.0322989225388, -0.1001938208938, 0.1078819110990, 0.0374778024852, -0.1567534208298, 0.1564053744078, -0.0288128312677, 0.1513819098473, 0.0678777620196, 0.0050505185500, -0.2102446258068, 0.2267005592585, -0.0505306459963, -0.2026117742062, 0.0382671244442, 0.2316334992647, 0.1308002322912, -0.2752855122089, -0.1565766632557, -0.0441468507051, 0.1472529619932, 0.2161298990250, 0.1137557625771, -0.1254600584507, 0.1694649457932, 0.1060677468777, -0.2355823069811, -0.0817750021815, -0.1005137860775, -0.0252735614777, 0.0145158898085, 0.0630220845342, -0.1743991523981, -0.2587575614452, 0.2377470284700, -0.2568472623825, -0.0406848303974, -0.2288181930780, -0.1482477933168, 0.1332549899817, -0.1870457530022, -0.0976435467601, -0.2298442423344, -0.0246364641935, -0.1990799605846, 0.0286675281823, -0.3685293495655, 0.0880735591054, -0.0137465596199, -0.0184672549367, -0.1354874521494, 0.0473918356001, -0.1326530426741, 0.2560173869133, 0.1492176651955, 0.2202585935593, -0.1144812032580, 0.1340908706188, -0.1233890205622, -0.0611650720239, 0.2824708819389, -0.2509478628635, 0.0518004335463, -0.0189293287694, 0.0931965336204, -0.1424311399460, 0.1898058205843, -0.2094767689705, -0.2277884632349, 0.1023879796267, 0.0515907853842, 0.1014913693070, -0.1184017509222, -0.3821693658829, 0.1713472902775, 0.1338781267405, -0.1109497174621, 0.1435656547546, -0.1825422048569, 0.0231735035777, -0.3155457079411, -0.0132962334901, -0.0901468396187, 0.3312996923923, 0.2137452363968, 0.1781644970179, 0.1639776229858, 0.2665351629257, -0.4192925691605, -0.0098022893071, 0.1686810255051, 0.2971907854080, 0.1879497468472, 0.1098739653826, -0.0976875051856, 0.0625428408384, -0.2127592265606, 0.3310727477074, -0.2481570839882, 0.0481734238565, 0.4248981773853, -0.0358061715961, -0.3152211904526, -0.1059049218893, -0.2416121661663, 0.0253280308098, -0.0311582610011, -0.0671206489205, -0.1175366565585, 0.2524144947529, 0.0696473196149, -0.0029799465556, -0.2458278387785, 0.0303440764546, 0.0431649051607, -0.2258658111095, -0.1481632888317, 0.2419576197863, 0.1780702620745, 0.1916092336178, -0.2320462167263, 0.0577073432505, 0.2812498211861, -0.0245008915663, -0.0413520075381, -0.0382808335125, -0.0407920517027, 0.3656260669231, 0.0198144596070, 0.0403700843453, -0.0335565432906, 0.0775247290730, 0.1169660389423, -0.0585454031825, 0.0944241210818, 0.0317506939173, 0.2479932606220, 0.2696717679501, 0.0031533692963, -0.0322551168501, 0.1742654889822, -0.0135965077206, -0.0583283565938, 0.2123337239027, -0.0593872815371, -0.0484039150178, -0.0390242524445, -0.1724105924368, -0.1289171874523, 0.2309504151344, 0.2215546220541, -0.0099865160882, 0.0699547305703, 0.1615410298109, 0.1220577955246, -0.2407225221395, 0.2397424280643, 0.0906622335315, 0.2341047227383, 0.0949140936136, -0.0236587189138, -0.0820317938924, 0.3023753166199, -0.1614825129509, -0.0389907024801, -0.1624903976917, -0.0825632289052, -0.2799279093742, 0.1567783802748, 0.0636585578322, -0.0109173459932, 0.0661358907819, 0.2348178625107, 0.1130572408438, 0.0399166867137, -0.0258240457624, 0.2520621120930, -0.0053853606805, -0.0048166639172, -0.2860180139542, -0.0655102878809, 0.0596087984741, 0.4306186139584, 0.0069756000303, -0.0943359434605, 0.1981647759676, 0.1476871520281, 0.0764153301716, -0.0710386261344, -0.1743893474340, -0.0371692776680, -0.0002260830952, 0.0546146035194, -0.0195111688226, 0.3471161723137, -0.0185346640646, -0.0960944071412, 0.1830170601606, 0.0115212434903, -0.1242617517710, -0.1914847344160, -0.0672539994121, -0.0814530700445, 0.2561421096325, -0.0524011738598, 0.0730617940426, -0.1512626111507, 0.1363164931536, -0.1263668090105, 0.0786045640707, -0.1649001091719, 0.1368236839771, -0.2404706925154, -0.1081081852317, 0.1835274398327, 0.1305634230375, -0.1311541199684, -0.2136307358742, 0.2736091911793, 0.0869151502848, -0.0337708219886, -0.0067388699390, -0.0438491441309, 0.1046847403049, -0.0718992203474, 0.1672678738832, 0.0324747711420, 0.0156000219285, -0.4244323372841, 0.1816058158875, 0.2098826766014, 0.1205465123057, -0.1294080615044, -0.0589636750519, 0.2654927372932, -0.2702016830444, 0.2427567988634, 0.0174177102745, 0.1133698821068, -0.0251547452062, 0.1613785773516, 0.1079123094678, 0.0148344906047, -0.1946195363998, 0.2972118854523, 0.0452184677124, -0.0823018550873, 0.0132755953819, -0.0754770636559, 0.2180742174387, 0.1154008582234, -0.0437110327184, -0.1280378699303, -0.1194972097874, -0.0126911802217, -0.0644652396441, 0.1458489000797, -0.0181248299778, -0.2261374443769, 0.1154932379723, 0.0817920863628, -0.1799185723066, -0.1944086551666, 0.1181254908442, 0.0676418840885, 0.0180325806141, -0.0724681392312, 0.0376743748784, -0.0163103137165, 0.1446096152067, 0.1573490947485, -0.0167113114148, -0.1587401032448, 0.1431280672550, 0.1209418103099, -0.1419375240803, 0.2124098986387, -0.1202550381422, -0.1024234592915, 0.1379497349262, 0.0881266221404, 0.0323952063918, 0.1185737475753, -0.1432277709246, 0.0697264298797, -0.1458015590906, 0.1471672207117, 0.1096529439092, -0.1215640231967, 0.1144740954041, 0.0380886457860, -0.1613273620605, 0.0876381322742, -0.2031192630529, -0.0106778806075, -0.1569411307573, 0.0898495391011, 0.2994343042374, -0.0858545228839, -0.0051048966125, -0.2208882123232, 0.1063668131828, -0.1402830034494, 0.2772296965122, 0.1477558016777, -0.3194449245930, -0.1668928265572, -0.1727102547884, 0.0070506953634, -0.0004435441806, -0.0067830048501, 0.0204912256449, 0.1077219471335, 0.0065071019344, 0.2106372267008, 0.2289303839207, 0.0313665308058, -0.1601035892963, 0.1823752969503, -0.1082319989800, -0.0933129936457, -0.7886256575584, 0.3497541546822, 0.0823356881738, -0.0910149738193, -0.1820396184921, -0.0235588606447, 0.0535697340965, -0.1797216087580, 0.0911844968796, 0.1645928174257, -0.0300842113793, -0.1132865250111, 0.1077832654119, 0.0109676681459, 0.2091190516949, -0.2753393948078, -0.1434881687164, 0.1230059787631, -0.0844218209386, -0.0639710426331, 0.1408764570951, 0.0584801435471, 0.0000614831806, -0.2681877017021, -0.1920067816973, -0.1210772246122, 0.1091513931751, 0.0522271804512, 0.0217318665236, 0.2358430474997, -0.0119123701006, 0.0559427104890, 0.1714988201857, -0.1353165954351, -0.1209885403514, 0.0705340355635, 0.1880340129137, -0.0779422521591, 0.2721211612225, -0.4028630852699, -0.2417705953121, 0.1007128730416, 0.0574574954808, -0.1261450499296, -0.2033296674490, 0.0971537977457, 0.0267270486802, 0.0780044272542, 0.0684334635735, -0.0671337097883, 0.0696096196771, 0.1944152116776, 0.0731258466840, -0.1241833493114, -0.0074285292067, -0.0909059643745, -0.2227195799351, 0.2696243822575, 0.0915335640311, 0.1651908606291, -0.1739494353533, 0.1720811128616, -0.2530441582203, -0.1710328310728, -0.1059125065804, -0.2584293484688, 0.0502583198249, -0.2064380198717, -0.0580128878355, -0.0006798983668, 0.2021925449371, -0.1488956212997, -0.1635157167912, -0.0997872650623, 0.2114645242691, -0.1231646314263, 0.2660056352615, 0.1084688678384, 0.1208399385214, 0.1416652649641, 0.1584432572126, -0.0145308226347, 0.1981652528048, -0.0073458701372, -0.1803078353405, 0.0927175357938, -0.0796882808208, 0.0328025706112, 0.0534448847175, 0.1918595284224, 0.1087693721056, 0.1071892082691, 0.2778688073158, -0.1388291567564, 0.2130694836378, -0.1418740600348, -0.2542858719826, 0.0567431747913, 0.1241653785110, 0.0706802234054, 0.1415618360043, -0.0446717999876, 0.2459271252155, -0.1673467159271, -0.0078600561246, -0.1068707853556, 0.2285538017750, 0.0148948449641, -0.0876508206129, 0.2349580377340, -0.1959170550108, 0.0042787138373, 0.1022535637021, 0.1511115133762, 0.0369054153562, 0.0896665006876, 0.1336191296577, 0.1215101704001, 0.2265330404043, 0.1681060343981, 0.2728942334652, 0.0617233105004, 0.0517210811377, 0.0887292921543, 0.2064895033836, -0.1970320492983, 0.1768955737352, 0.2653752565384, 0.2254335284233, -0.1975980848074, 0.1787065863609, -0.4982414245605, 0.2485526651144, -0.2279975563288, -0.1273789107800, -0.5093972086906, -0.1561791747808, 0.2643328309059, 0.0637740716338, 0.2336726635695, -0.1044692695141, -0.0137208038941, -0.0747660920024, -0.2127262204885, 0.3224728703499, 0.2206392139196, 0.1969418972731, 0.2397033572197, 0.1752402931452, 0.2462950646877, -0.1287614852190, -0.4826016128063, 0.0043524936773, -0.0406856983900, -0.1113067641854, -0.1089286357164, -0.1349303275347, 0.0301197748631, 0.0193009041250, 0.2207424640656, 0.3249985575676, -0.4540340304375, 0.2542269825935, 0.1198445260525, -0.0447143353522, 0.0023492968176, -0.0214922633022, 0.2044300585985, -0.0232601631433, -0.1072230041027, -0.0554222576320, -0.0160840339959, -0.0353224761784, -0.0507376343012, 0.2458763122559, 0.0871502384543, 0.1750021129847, 0.1344683319330, -0.0555981956422, 0.1270946562290, 0.1228998601437, 0.0607014894485, 0.1179070696235, -0.1500838249922, -0.0031499769539, -0.1573775708675, 0.2008611857891, 0.0738316476345, -0.0924493372440, -0.0443048737943, -0.0481680929661, 0.2131904661655, 0.0554909966886, -0.0387925468385, -0.1274258196354, -0.0852899774909, 0.0124315032735, -0.0905973762274, -0.1751800626516, 0.1006363332272, -0.0030332023744, 0.2541230618954, 0.1238936483860, 0.2056808173656, 0.0254752375185, -0.1750092357397, -0.1803724914789, -0.0191969834268, 0.1111612543464, 0.0282404441386, 0.0964093729854, 0.2922984063625, -0.0718369111419, 0.1205287426710, -0.0007529786672, -0.0781669393182, 0.1752707064152, -0.1154683455825, -0.1380318552256, -0.0217932164669, 0.0969274789095, 0.2458279728889, 0.1890904158354, 0.2236437201500, 0.0884260386229, -0.2188363224268, 0.0894391089678, 0.1043277978897, 0.0348354354501, -0.0679226890206, 0.0231970176101, 0.2501825392246, 0.0977829545736, 0.2315133512020, -0.1262366473675, -0.0857103541493, 0.0636789947748, 0.0424939692020, 0.0890932381153, 0.1042610853910, 0.0833171010017, 0.1999675780535, 0.1764328926802, -0.2306109815836, 0.0351781286299, 0.0752511620522, -0.0327317304909, -0.0912862494588, -0.1317256689072, 0.0576537549496, 0.2245457321405, 0.0446493700147, -0.1884652823210, -0.1745260953903, 0.1329433023930, 0.0227580256760, 0.1005973145366, 0.0139858173206, -0.6767871975899, -0.0372406765819, -0.3172547519207, -0.1332360655069, -0.2527303695679, 0.1206380054355, 0.3244102597237, -0.1903674900532, 0.1707382053137, -0.0653487965465, 0.0858624055982, -0.2296841144562, 0.1795302629471, -0.0159914847463, -0.6252402067184, -0.0627306401730, 0.0720759779215, -0.1007218211889, 0.0705279260874, 0.0098836794496, 0.0290506798774, 0.1353279501200, -0.5060741305351, -0.1837723553181, 0.2031237632036, -0.0981198325753, -0.5802118182182, 0.2652540802956, 0.1790612041950, 0.0421663857996, -0.0323085039854, 0.5015761852264, -0.0066753998399, -0.0876258760691, 0.3043920397758, -0.3227735757828, -0.0562724210322, 0.0746514797211, -0.3435334861279, -0.0756535008550, 0.0703896507621, 0.0226845964789, 0.0146393887699, -0.1107475608587, -0.2482076585293, 0.0674484297633, -0.2118560969830, 0.1408331692219, -0.0022594055627, -0.1963245123625, -0.0075924103148, -0.1121462360024, 0.2147389352322, 0.1506740301847, 0.2409590482712, 0.2237084358931, -0.2989147603512, 0.0594176426530, -0.1722256839275, -0.0573485828936, -0.0186731107533, -0.4075350761414, -0.0444345548749, -0.1346852183342, -0.0152321504429, 0.2635001540184, -0.2331382334232, -0.1482419967651, -0.1604848802090, 0.2429029643536, 0.0664547607303, -0.2798450291157, -0.0560375563800, -0.1961888670921, 0.0278776530176, -0.0740448459983, 0.0054216478020, -0.2494145929813, 0.0672817528248, 0.1058075800538, -0.0108795287088, 0.1021433621645, -0.0606053881347, -0.1295903027058, 0.2082019299269, -0.0698687508702, 0.0110600665212, 0.0042167617939, 0.1090627238154, 0.0214817523956, -0.1667023897171, 0.3331822156906, 0.1285550296307, 0.1911369115114, 0.2306068390608, 0.0206877626479, 0.1841521412134, -0.0449982061982, -0.0868995934725, -0.0217348206788, -0.0119676832110, -0.1592902988195, 0.0734781250358, -0.0222874134779, 0.0108356764540, 0.1234030500054, -0.0026403029915, 0.1221812963486, -0.2106604874134, -0.0587243512273, 0.1209442019463, 0.1472536921501, 0.0375120043755, 0.2491579800844, 0.1656098961830, 0.0877586007118, 0.1801711469889, 0.1259321570396, -0.0777058750391, 0.2175408154726, 0.0055959592573, -0.2600805759430, 0.0474113933742, 0.0937249287963, 0.1625502854586, -0.0897327288985, 0.1064081713557, -0.1478199064732, 0.2498738318682, -0.3566012382507, 0.1596862822771, -0.1538268774748, 0.0247416328639, -0.2603315114975, -0.6378979682922, -0.0955367907882, 0.3135928809643, 0.0324169583619, -0.4011589288712, 0.1308227628469, -0.0735608860850, -0.2718064188957, 0.4939478933811, 0.1777779459953, 0.0228141956031, 0.0338755287230, 0.2329313606024, -0.0034044638742, 0.3475764393806, -0.3689373135567, -0.2770082652569, -0.1059065833688, 0.0713142007589, 0.2121342867613, -0.2513910233974, 0.0825512260199, 0.3277499377728, -0.0644194409251, 0.3025990128517, -0.4476685523987, -0.2006055265665, 0.0563430078328, 0.0801825597882, 0.1409210860729, 0.0248358752578, -0.1752262115479, 0.0228053145111, -0.0893050208688, -0.1587828248739, -0.2334470897913, -0.0104973455891, 0.1665939688683, -0.1805320233107, 0.2615751624107, -0.2379708141088, -0.0524708516896, 0.1813461482525, -0.0452772639692, -0.0512464269996, -0.1143081635237, -0.2054512798786, 0.2124924808741, 0.0189231634140, -0.0778857171535, 0.1262769699097, 0.1592520922422, 0.0169045310467, 0.1548922955990, 0.1709847599268, 0.2673102319241, -0.3115452229977, 0.3640739023685, -0.0679524317384, -0.0257580783218, -0.1634904742241, -0.0640131235123, -0.1256076097488, -0.1277931630611, 0.1492386907339, 0.0476186424494, -0.1110301539302, 0.1608912646770, 0.1297573745251, -0.0353401713073, -0.1383536458015, -0.0402971170843, -0.0272425990552, -0.0657370686531, -0.0733412802219, 0.1325101256371, 0.1247832179070, 0.0904679745436, 0.1763835698366, 0.0047565484419, 0.0619054101408, 0.2045234739780, 0.0626075789332, 0.2276913970709, 0.0245196074247, 0.1592945456505, 0.0447003953159, 0.0915166735649, 0.1193559095263, 0.1360011696815, -0.0676835030317, -0.0396709181368, -0.1284045577049, 0.1528782248497, -0.2113344669342, -0.0194182395935, 0.1652057766914, 0.1010639816523, -0.2342537194490, 0.0906835123897, 0.1569076180458, 0.0780811533332, 0.1890901476145, 0.1299104094505, 0.0960714221001, 0.2761062681675, 0.0246779192239, -0.1159996613860, -0.0415261238813, 0.0917459651828, -0.0869943723083, -0.1517697423697, -0.2245976477861, 0.1116245761514, -0.1488358229399, 0.1450865566730, -0.1717229038477, 0.0153007321060, 0.1383105367422, -0.0097395796329, 0.0108597325161, 0.0750779211521, 0.2150150686502, 0.0992876067758, 0.1719022095203, -0.0552933625877, -0.1923741847277, 0.0962963476777, -0.0621942505240, -0.2049875259399, -0.0256417114288, -0.1709954738617, 0.1863027960062, -0.1490082442760, 0.1581751257181, 0.0811358466744, 0.0183969996870, 0.0115496683866, 0.0358227118850, 0.1465643942356, -0.0272737443447, -0.0547878257930, 0.0262605920434, -0.1424051970243, -0.0793432593346, -0.0639866515994, 0.0669658556581, 0.0730744078755, 0.1877724230289, 0.0811286196113, 0.2463659793139, 0.2863981425762, -0.2723464071751, -0.1041566655040, -0.0076287868433, -0.0505697838962, -0.1371068507433, -0.0460449382663, -0.2717651128769, -0.2885349392891, 0.0799654126167, 0.3594932854176, -0.1681823134422, 0.0083755850792, 0.1504686921835, 0.1120820716023, -0.1050236299634, 0.0041503743269, 0.1023513525724, 0.3134072721004, -0.0922980457544, 0.0133689725772, 0.1995234340429, 0.1737623214722, -0.1648661047220, -0.2535586059093, 0.1605364978313, -0.0863208174706, -0.0916516557336, 0.0704939290881, 0.0482821241021, -0.1396781653166, -0.0539977960289, 0.0036854948848, 0.2776013016701, 0.0125372326002, 0.0803491100669, 0.1461516916752, 0.0272361710668, 0.1085362061858, 0.0412198863924, -0.0262981131673, -0.0722403377295, 0.3113465607166, -0.1227509304881, 0.1079379916191, 0.1184790059924, 0.2635028064251, 0.0472802817822, 0.0697062611580, 0.1673558354378, 0.2525941729546, 0.0589085631073, -0.1152030453086, -0.1139131635427, 0.0931771099567, -0.2050008773804, -0.0183106660843, 0.0527087822556, 0.1918367445469, 0.0776974707842, -0.1122175306082, 0.1784256696701, 0.0192200336605, -0.0527995526791, 0.2566696405411, 0.1937537938356, 0.0075424844399};
#endif

#endif
