//Numpy array shape [32, 32]
//Min -1.002402544022
//Max 0.608225703239
//Number of zeros 0

#ifndef W8_H_
#define W8_H_

#ifndef __SYNTHESIS__
model_default_t w8[1024];
#else
model_default_t w8[1024] = {-0.1522279381752, -0.0184326320887, 0.0097352880985, 0.1788456737995, 0.0395927354693, -0.4200372099876, 0.2855840027332, -0.1320866197348, -0.2551060318947, 0.3060160279274, -0.1609429717064, 0.0227599479258, 0.3699923455715, -0.3243936300278, 0.0783297494054, 0.0479460991919, -0.0335532166064, -0.0794623270631, 0.3737380802631, -0.0678734630346, 0.5813161134720, -0.2701086401939, -0.0429575480521, 0.1403593719006, -0.0100813470781, 0.0684446617961, 0.4300622344017, 0.3060838878155, -0.4019199013710, -0.1114110723138, 0.2950249612331, 0.2914522588253, 0.3253986835480, -0.0386670939624, -0.0782430395484, 0.3145481944084, 0.3180012106895, -0.1594632267952, 0.1225303336978, 0.2850666642189, 0.2719170451164, -0.6714538335800, -0.1202786266804, -0.1124673932791, 0.0159197542816, 0.0797384232283, 0.0531864911318, 0.0092458911240, 0.2345028668642, 0.2021947652102, 0.1589892059565, 0.1666688323021, -0.0031924040522, -0.3480760455132, 0.0021291992161, -0.0846909731627, -0.2434975504875, -0.3419208526611, -0.4277628362179, -0.1025777459145, -0.1993498653173, -0.1491292417049, -0.2953942418098, -0.5350857377052, 0.1086923703551, -0.3320906460285, -0.6763333082199, 0.1864219754934, 0.1184250265360, -0.4896263182163, -0.3439431786537, 0.3070789575577, 0.1412837356329, -0.0162113234401, 0.3796507716179, -0.2929681241512, -0.7481516599655, 0.1898345947266, -0.4264472723007, -0.3647547364235, 0.5282356739044, 0.3945337235928, 0.3673662841320, -0.4186289012432, -0.3889217078686, -0.0917390063405, -0.1354880034924, 0.1599857807159, -0.5928869843483, -0.5403527021408, -0.4724334180355, -0.0464959330857, 0.2615681588650, 0.2766896784306, 0.1991268843412, -0.0320249013603, -0.4254276156425, -0.0853573232889, 0.2538333535194, -0.2775851488113, 0.0946670696139, 0.3313429653645, 0.0262959506363, 0.3033999502659, 0.1700366288424, 0.0405876599252, 0.2516399919987, 0.0651556327939, 0.0183622315526, -0.0850070789456, -0.0516939610243, 0.2964189350605, 0.1095346733928, -0.4358881115913, 0.1801488101482, 0.3554777503014, 0.3278590142727, 0.4066731333733, -0.1600822806358, 0.0893294885755, 0.4722135066986, 0.4249689877033, 0.4127773642540, 0.1161828115582, -0.2789333164692, 0.0941566601396, 0.0023238365538, -0.0294707957655, 0.0083749610931, 0.1234541758895, 0.1075797080994, 0.0756328031421, -0.0744944810867, -0.0225753076375, 0.1342075467110, 0.3605966269970, -0.1471728533506, 0.2410136908293, 0.3457655608654, -0.2518337368965, -0.1102261245251, 0.2159809172153, 0.3395528495312, 0.1102319806814, 0.1170810535550, 0.1326292157173, -0.2742151319981, -0.1735569983721, 0.2006487846375, 0.1579974591732, -0.2499345391989, -0.2333082854748, 0.2863021790981, 0.2456128746271, 0.1814974099398, 0.0367337949574, 0.2118841558695, 0.0163461491466, 0.1226584464312, 0.2642761766911, -0.2024161815643, 0.0092630507424, -0.5609549283981, -0.2733428180218, 0.2410006672144, -0.3909806609154, -0.0211848430336, -0.0792647302151, 0.3790974617004, -0.2687012851238, -0.2080009579659, -0.2812654972076, -0.1288572549820, 0.2547790110111, 0.2375538647175, 0.0182145964354, 0.3119793832302, -0.2947444319725, 0.3870325982571, -0.1671727150679, -0.1416031569242, -0.3875276446342, 0.1890362352133, 0.1209461763501, -0.1212575510144, 0.2151094079018, 0.0169261302799, -0.1733276546001, -0.2684957683086, -0.1333544999361, 0.0641749352217, -0.4456349909306, -0.0527620241046, 0.1198105439544, 0.1696214377880, 0.0659103617072, -0.0608223415911, -0.1193581074476, 0.0861191451550, 0.0683338195086, 0.0055516222492, -0.2833284437656, -0.0028608418070, -0.2263465970755, -0.6438042521477, 0.1468989253044, -0.2344638258219, 0.0815644785762, -0.1008521765471, 0.0634077787399, 0.1649684756994, 0.2263475507498, -0.7400401830673, 0.0586415193975, -0.2387775182724, -0.1691087484360, -0.1594894081354, -0.3425537943840, 0.1601240336895, 0.1616756170988, -0.2130612134933, -0.1079690679908, -0.5790157914162, -0.4040777385235, 0.2714242041111, 0.1690253466368, -0.8351864218712, -0.3961580395699, 0.2948272228241, -0.3710149824619, 0.0079986164346, 0.0879440456629, -0.3973239362240, -0.2046403586864, -0.8095895648003, -0.1953252702951, 0.1332953572273, -0.2939198315144, -0.0731211751699, -0.9578120708466, -0.1134341135621, 0.0862062871456, 0.2875183224678, -0.1584633588791, -0.2616955637932, -0.5359308719635, -0.2987912297249, 0.0077834203839, -0.1813852339983, -0.5969915986061, -0.0290149841458, -0.2125971168280, 0.1175051853061, -0.1009176671505, 0.1745431125164, 0.3399879634380, 0.0559563934803, -0.2669626772404, -0.1937535405159, 0.2878772020340, -0.0058960509486, -0.2868030965328, 0.1571601629257, 0.2286303639412, -0.0760787874460, -0.3692920207977, 0.1431056708097, -0.2604842782021, -0.3246288895607, 0.0219183769077, 0.3284940719604, 0.0147449262440, -0.1540868133307, -0.1491246521473, 0.1841360777617, 0.0513735413551, 0.1214017868042, -0.3054705858231, -0.2626917660236, -0.2043216079473, -0.2401446849108, 0.3728809356689, 0.0905809774995, -0.3017201423645, 0.0366542413831, -0.2856087088585, -0.0061995643191, -0.1233651041985, 0.2979855835438, 0.0602843984962, -0.6985689401627, -0.3927847743034, 0.3288872539997, -0.1390348076820, -0.2931935191154, -0.2770396173000, -0.2111949175596, -0.1002958789468, -0.4252654910088, 0.1887708902359, 0.0541130974889, -0.0417200885713, -0.3357440233231, -0.7217902541161, 0.2043184936047, 0.3183656632900, 0.1256588101387, -0.2271883785725, 0.1765117347240, -0.2193389981985, 0.2291498333216, -0.1802471578121, -0.3634949326515, -0.3894995450974, -0.3719335794449, 0.3005229234695, 0.3833085596561, -0.2203164547682, 0.2380646616220, 0.0708401054144, -0.0558719299734, 0.4111625850201, 0.2849307060242, 0.1380764394999, 0.5449707508087, 0.3969725072384, 0.0368860289454, -0.0678105875850, 0.2066334336996, 0.1687217205763, 0.2250943332911, -0.2668481767178, 0.0735766217113, 0.1684073358774, -0.0445970781147, -0.0720264390111, 0.4275009334087, -0.3327156603336, 0.1424309015274, 0.0549134612083, -0.1649997681379, 0.2611382007599, -0.1955554187298, -0.0677564218640, 0.3870299458504, 0.1803207993507, 0.0849370285869, -0.3689369261265, 0.0885469540954, -0.0729479193687, 0.0490058846772, -0.2010207772255, -0.1040493994951, -0.0879385694861, 0.2602415680885, -0.1016030386090, -0.0005373530439, 0.0115252360702, -0.0651990994811, -0.0922653824091, -0.5431390404701, -0.1244687438011, 0.2045279294252, 0.0143888657913, 0.2000135183334, -0.2355027645826, 0.2243720293045, -0.0652780532837, -0.0489448644221, 0.2234987318516, -0.0064158649184, 0.2904618978500, 0.0212495848536, -0.1147376149893, -0.2503713369370, 0.1713077425957, -0.0775424093008, 0.1846307516098, 0.2269744575024, 0.2707982659340, 0.2984461486340, -0.2369724214077, 0.2781955897808, 0.3391478061676, 0.0869363695383, -0.0118692843243, 0.0490461662412, -0.0101060774177, -0.2388113886118, 0.0355642549694, 0.2786755859852, -0.2269005477428, -0.0314264148474, -0.3227206468582, 0.2259557992220, 0.0030381618999, -0.4127712845802, -0.0393769741058, 0.1074198782444, -0.1706357300282, 0.1636557281017, -0.0879816785455, 0.1225673705339, 0.0427651442587, -0.7849858403206, 0.1637234240770, -0.0780809298158, 0.3085284233093, -0.1967452764511, 0.2025419622660, 0.0411975868046, -0.4970866739750, -0.1559611558914, -0.2265069037676, 0.0380572937429, -0.4408229589462, -0.2812722325325, 0.1337551325560, -0.0006765321596, -0.0760720744729, -0.1646623015404, 0.3343984186649, 0.1239865943789, -0.0744877681136, 0.2653488218784, -0.1336237788200, 0.0678517147899, 0.1109412908554, 0.2763448953629, -0.1592297255993, 0.2950227260590, 0.1546261757612, -0.1956701725721, -0.2282485216856, -0.3089531064034, -0.0982766151428, 0.1352696120739, 0.2452801018953, 0.2061138302088, -0.2748612761497, 0.3722931444645, 0.3203662931919, -0.0316006205976, 0.2830157876015, 0.2468441277742, -0.0296496618539, 0.2533913552761, 0.1940559595823, 0.1662389934063, -0.4135487079620, -0.9368340373039, -0.3709300458431, -0.0621970221400, -0.7014976143837, 0.2023979425430, -0.0012765009888, -0.1354223340750, 0.1060686931014, -0.4427950680256, -0.1727045774460, 0.1020228639245, 0.2730345129967, 0.2507494390011, -0.2925444245338, 0.2412877231836, -0.3321722149849, 0.2086431533098, 0.3504296243191, 0.6082257032394, -0.7891471385956, 0.0948325097561, 0.1926559656858, -0.2961329519749, -0.4720640480518, -0.3420413732529, 0.1088237836957, 0.3631510436535, -0.3290440440178, -0.0893764421344, 0.3828732967377, 0.3654038012028, 0.4607006311417, 0.0973627418280, 0.0763088613749, 0.3801836967468, 0.2721323668957, -0.0790038481355, -0.4608218669891, -0.1216286271811, 0.3581544458866, -0.0559406690300, -0.1041118130088, -0.0720356926322, -0.0591837801039, -0.0152320768684, -0.1284762173891, -0.1927567422390, 0.2770504653454, 0.2957226932049, 0.2945736050606, -0.1209257096052, 0.1588858813047, -0.2059729248285, -0.0759202241898, 0.1498200744390, -0.1757567226887, -0.1196724176407, -0.0401593260467, 0.3293899595737, 0.2969821989536, -0.3193128705025, 0.2253003865480, -0.1691305041313, 0.1185761690140, -0.0674358159304, 0.3076709508896, 0.0052407914773, -0.2189272344112, 0.1391877830029, 0.3536526858807, 0.0681383162737, -0.4920392036438, 0.2143345177174, -0.0174134783447, -0.2539613842964, -0.0065698530525, 0.4301488995552, 0.0696717947721, -0.1408339142799, -0.2512812316418, 0.2773691117764, 0.0686837732792, -0.1935273408890, -0.0061240885407, 0.1036585867405, -0.1967731565237, -0.2291608899832, -0.3084450662136, 0.1530345976353, -0.4494968950748, 0.2416913658381, 0.3009755909443, 0.2672645449638, -0.5309048891068, -0.1020816564560, -0.0838199034333, 0.1869226843119, -0.1887223571539, -0.2252575904131, 0.0203189030290, 0.1647383272648, 0.1999894231558, 0.0831738486886, -0.2087176144123, 0.3555985391140, -0.1267490983009, -0.0961114913225, 0.0993849486113, 0.3434275090694, -0.0866109952331, -0.1036981642246, 0.2861616909504, -0.4193841814995, -0.2206461727619, -0.0629223138094, 0.0646171644330, -0.0698973610997, -0.2894246876240, 0.1469357311726, -0.0963351279497, 0.0683578923345, 0.3265622556210, -0.3258762359619, 0.0977012366056, 0.1499578654766, 0.3538311719894, 0.1329940110445, -0.1674220263958, 0.1479864269495, 0.1323188245296, 0.1742390394211, -0.1173405423760, -0.0282447151840, -0.0882368981838, 0.2337274104357, 0.2361178845167, -0.2534031569958, -0.1356609314680, -0.1732231080532, -0.0165803320706, 0.2217188030481, -0.0055487980135, 0.0859614089131, 0.0970508381724, 0.1244341582060, 0.2743272185326, 0.1325601041317, -0.2969202399254, -0.0336097851396, 0.0184503924102, -0.1428913027048, -0.1677311807871, -0.0697362497449, 0.0825431123376, -0.1368791460991, -0.2217966616154, -0.0985665917397, -0.0150706851855, 0.1937426179647, -0.2630976438522, -0.3401923775673, -0.3636514246464, -0.1372704952955, 0.2244805991650, -0.1382682323456, -0.1889022588730, 0.2514754235744, 0.2163168936968, -0.3561960756779, -0.1383321881294, -0.2451168298721, -0.1374906450510, -0.2552412450314, 0.0261017084122, 0.3265151381493, -0.1745608150959, 0.0208862479776, 0.2493292242289, -0.0512917302549, 0.0429376214743, -0.1870201975107, -0.1184416562319, 0.0029515530914, -0.0865005254745, -0.1822481900454, 0.2714712619781, -0.1019799858332, -0.2135857492685, -0.3514739871025, -0.0222984552383, 0.2781851291656, -0.1552360355854, 0.2024440169334, -0.0210714377463, -0.0202078279108, -0.0570254139602, 0.4281061291695, 0.3496351540089, 0.2447755783796, 0.0162918064743, -0.1515504866838, -0.2477119714022, -0.2764031291008, 0.3157026469707, 0.1876208931208, -0.2452472895384, 0.4249340891838, 0.0911604017019, -0.2131865471601, -0.2266125828028, -0.3267103135586, 0.1624956130981, -0.2383926361799, -0.2443545758724, -0.0144105013460, -0.3886559903622, -0.3423048555851, -0.2557226717472, -0.2804704308510, -0.1643685400486, -0.2880554497242, -0.3172069191933, -0.0421704463661, -0.3315950632095, -0.2444349378347, -0.0584856159985, -0.2454536557198, -0.4675852358341, 0.1192762479186, 0.1095480993390, -0.0558004118502, -0.5417841672897, 0.0209465380758, 0.1587506830692, -0.2061506956816, -0.2024763226509, 0.1087292507291, -0.0062658097595, -0.0483382754028, 0.1809903830290, -0.0016542196972, -0.1864615827799, 0.2016412019730, -0.1994142085314, -0.1751024574041, -0.0018581683980, 0.0508207827806, 0.3275720179081, -0.2320861220360, 0.2030772566795, -0.2281886041164, -0.1801982820034, 0.3549072146416, -0.3550826013088, -0.0322995558381, -0.1447412073612, 0.3533481061459, -0.0367639623582, -0.1174575239420, -0.1784197688103, -0.0158921107650, 0.3878847658634, -0.1386969238520, 0.1203381940722, -0.0641566887498, -0.2488069683313, 0.4052996635437, 0.2797630727291, 0.5625914931297, 0.4690333902836, -0.0262168832123, -0.2439133375883, -0.1821635961533, 0.0617037191987, 0.3174296915531, -0.2041091024876, -0.2556297481060, -0.0569118522108, 0.4814323782921, 0.0577447637916, 0.2627379298210, -0.0084154875949, -0.0666801631451, 0.0497983135283, -0.0423632077873, 0.0147371059284, 0.2187943607569, 0.2008489370346, -0.3321859538555, 0.3591786026955, 0.2793895006180, -0.1196771338582, -0.0209122337401, 0.0166018661112, -0.0018064255128, -0.0439120531082, -0.0155214434490, 0.1973104625940, 0.0650640130043, 0.2403777837753, -0.1945465505123, -0.0460669174790, 0.3523243069649, 0.2759546637535, 0.2358808815479, -0.2896849811077, -0.2290342301130, -0.1837102323771, -0.2899354398251, 0.0250430721790, 0.1044806912541, -0.2341015636921, 0.2238253355026, -0.1879397332668, 0.2889806330204, 0.2401193678379, 0.1384180635214, 0.0229540336877, -0.3078472018242, 0.0341475345194, 0.0001496766054, -0.1360791772604, -0.2519571483135, 0.0521274544299, 0.2978438735008, -0.2243541330099, 0.0738508701324, -0.1837872862816, -0.2493646740913, 0.2859853804111, 0.0769522413611, 0.2479632496834, 0.0025588991120, 0.2715562880039, -0.1580073982477, 0.1089688464999, 0.0733162015676, 0.3436629474163, -0.2624585926533, 0.2656104564667, 0.1887220293283, -0.0582309290767, 0.0565018616617, 0.2896536588669, 0.0796276330948, 0.0205928608775, -0.0287791546434, 0.0105782411993, -0.2204165458679, 0.1632671356201, 0.0533573068678, -0.0444341190159, 0.0551346503198, -0.1626695990562, 0.1518749147654, -0.0554692335427, -0.2827911078930, 0.3260066807270, 0.0132213560864, -0.1746159344912, 0.2426292300224, -0.1374790668488, -0.0222313906997, 0.2064311206341, -0.1437806785107, -0.2994777262211, 0.0242663938552, 0.2234964370728, 0.1840964853764, 0.0211478378624, 0.1864909380674, -0.0737760737538, 0.0557988546789, -0.0098611125723, -0.0959188118577, -0.2532519996166, -0.0764408707619, -0.2007255405188, -0.0178957711905, 0.0945024639368, 0.1102689132094, -0.0556080527604, 0.0579577870667, 0.0195267815143, 0.0757530257106, -0.3798145353794, 0.1164845675230, 0.2653254568577, 0.1238847076893, 0.2016296982765, 0.0140857277438, -0.0131796663627, 0.4272812306881, -0.0014180773869, 0.4364102184772, 0.1448071300983, 0.1558944731951, 0.3711158037186, 0.3623668253422, 0.0315298251808, -0.0621507763863, -0.2996392548084, 0.4342770278454, 0.1214161515236, 0.1427108049393, -0.1733218431473, 0.5319483876228, 0.3884354829788, 0.2942220270634, 0.0990288183093, -0.2864167690277, 0.0200340356678, 0.4667135775089, -0.1846789121628, 0.2439986616373, 0.0902191251516, -0.1485960781574, -0.0959599316120, 0.0994601249695, -0.0920181497931, 0.0951718762517, 0.2778983414173, -0.0634523108602, 0.1681175976992, -0.1309593319893, -0.2491684705019, -0.1890712827444, 0.1005393341184, -0.1689163446426, 0.1063299551606, 0.2350008189678, 0.0382377281785, 0.2836017608643, -0.0566293112934, -0.3457057476044, -0.1496242433786, 0.0433485694230, -0.1734821945429, -0.3062714040279, 0.1908162534237, 0.2406230270863, 0.0492781698704, 0.3106319010258, 0.0702165514231, 0.2034168094397, -0.0341404750943, -0.0885409042239, 0.0741034373641, -0.2295269221067, 0.0547733828425, 0.4777685105801, 0.0087156919762, -0.0752694159746, -0.2784547805786, 0.0363228470087, 0.1733365505934, -0.1562027633190, -0.1778365969658, 0.0497284717858, -0.0681477338076, 0.1148414835334, -0.3137924075127, 0.2228674739599, 0.2036250829697, 0.1275573819876, 0.2083292007446, -0.1504628062248, -0.3714419305325, 0.1562729328871, -0.0418128669262, 0.1426044851542, -0.1148546263576, -0.3093287050724, 0.0867742076516, 0.1401800364256, -0.0494944006205, 0.0743727460504, -0.2066196203232, 0.2206200212240, 0.2183894813061, 0.2589603364468, -0.3225074112415, 0.2433850616217, -0.0013253203360, 0.0975141674280, -0.0619968473911, -0.1328192651272, 0.3838566541672, 0.0927415937185, -0.2925151884556, 0.1591584831476, 0.1882553845644, -0.2284888327122, 0.3220048546791, -0.0457080304623, 0.1526932269335, 0.2153869122267, 0.1221028938890, 0.3375359475613, 0.2600702643394, -0.2041700780392, 0.0009875621181, -0.0561160147190, -0.0137699693441, -0.0068133412860, 0.3573620021343, 0.3333771824837, -0.0706677436829, -0.1441144198179, 0.0156126189977, -0.0172715838999, -0.4599082767963, -0.3117008507252, -0.2654684185982, -0.1637216359377, -0.7363770008087, 0.3012030124664, 0.2793563604355, 0.2410347610712, -0.1242594197392, -0.1067353263497, 0.0055017136037, -0.7403820753098, -0.0839087069035, -0.1478864997625, -0.0510095134377, 0.3136659264565, -0.0091299982741, 0.1537306457758, -0.1615872234106, -1.0024025440216, -0.1557378321886, 0.1118058860302, -0.0145547147840, -0.9541397094727, 0.2415941208601, -0.8412494063377, 0.0380007401109, 0.0664852336049, -0.3139381110668, -0.6664928793907, -0.4304480254650, 0.0197361279279, -0.0777343213558, -0.2903558015823, 0.0856478437781, -0.1397774070501, -0.2092520892620, 0.1881360262632, -0.0870817229152, 0.3832450807095, -0.5996543765068, 0.1332958340645, 0.0660377591848, -0.1585035473108, -0.3020226061344, -0.1348142325878, -0.3233191370964, 0.1623055487871, 0.4206775426865, -0.1877013742924, 0.3111480772495, -0.4611775279045, -0.2043197005987, -0.2382387369871, 0.2546552717686, -0.5403991341591, -0.1223792955279, 0.1964949518442, -0.3881612420082, 0.2237364053726, -0.0267520528287, -0.4216576814651, -0.3835326433182};
#endif

#endif
